#Weights: 
0.055968533316|0.019416750809|-0.002714903389|-0.155069286893|0.181607640432|-0.098085144013|-0.073854791570|-0.113554546627|0.027705339594|-0.174890039817|0.081469567468|0.051536029677|-0.028719140214|-0.033690036894|-0.044391810031|-0.227803322275|0.236414926282|-0.099522150111|0.025236656561|-0.007110150660|-0.070309574604|0.238188957357|-0.091398139239|-0.196410807204|0.146325027806|0.038761332376|-0.018829288329|0.252807615567|0.125107411630|-0.136925047151|-0.075105085433|0.240183903511|0.104743561504|-0.039551890628|0.071377835418|-0.172599391834|-0.022400807638|-0.109715381027|0.118666303103|-0.062242287635|-0.017848849196|0.075227454984|0.108296123379|0.106462315885|-0.222042457242|0.237962601335|-0.005524859712|-0.106457639058|-0.047028948998|0.032074911240|0.019991459129|0.032240052730|0.022067904306|-0.235677037995|0.002330678315|-0.090531930075|0.122310713363|-0.056232715650|-0.040228379746|0.037971526080|-0.020987085568|-0.087668934313|-0.032516413552|-0.149115158012|-0.127498653185|0.025222936306|0.008580319429|-0.103640300488|0.079822854658|-0.187820315600|-0.156817885723|-0.306283660006|-0.335493682609|-0.157942955171|0.200286234179|-0.069645172827|0.010342684757|0.006630992224|0.245198635402|-0.058933590630|0.143319993361|0.038978037946|0.030766686929|-0.020604097890|0.021524346364|0.262010930338|-0.011817714806|-0.086313720970|0.071118099229|-0.105645245089|0.008329845939|0.055909401307|0.026391037048|0.089818259962|0.071269764985|-0.055622214934|0.048031878519|-0.203822988596|-0.378015708612|-0.272265994325|0.169228209986|-0.029143008456|-0.048969934311|-0.094479780255|-0.005902723118|0.194859170159|-0.224855252724|-0.236150292291|-0.064650121842|0.133401821269|0.250775765616|-0.169967580751|-0.053351050882|-0.046277949847|-0.161453485501|-0.067744864174|0.012841394792|0.144717609673|0.126057396499|0.021025476470|-0.011981522854|-0.240447916656|-0.024561684540|-0.227194088792|0.059423140677|0.026452189078|0.001908372540|0.030847431006|0.037341266618|-0.246216543859|-0.024834087304|0.034790824254|-0.161248296295|0.047305824055|-0.056666278189|-0.024376525516|-0.181396104248|-0.040343817758|0.227695944251|-0.027658330925|0.010386651298|0.278135190752|0.022030634769|0.142705088146|0.053485339801|-0.205567357727|-0.027000734142|0.179680400743|0.008871491585|0.212826695039|0.068051371237|-0.016539109591|0.359920247681|0.314116670857|0.353276168801|0.369293693998|0.186227738494|0.168731701814|0.077567944290|-0.003493612391|0.220696663530|-0.013434708149|0.186244016998|0.036734525663|0.216698610764|0.331975386917|-0.186433106171|0.053596178393|-0.062928689902|-0.113522050763|-0.003681368214|-0.214054981165|0.277024816697|0.326877343982|0.185263008937|0.048596026233|0.320218644000|0.360586352563|0.325265275001|0.370401921466|0.044930095686|0.117584983453|0.247109377462|0.062052884486|0.069656950076|0.109744095490|-0.171093986176|0.317876305870|0.098082477034|0.191785932277|0.280723722408|0.423968308980|0.197153167490|0.140929998015|-0.034495898182|0.054379723712|-0.035430468653|0.149769392953|0.042738393515|0.080613444786|-0.216028372142|-0.015182197059|0.279077447783|0.460742459279|0.454952504318|0.438832862485|0.421754662861|0.274264097050|0.187126419332|-0.126297718347|-0.124263147690|-0.123110003455|0.083270859485|-0.130778882006|0.112649660651|0.030532890572|0.056902873255|-0.072815538420|0.034773607041|0.209694657286|0.217545684415|0.037096795162|0.249764713604|-0.123801624449|0.175985612643|0.054597240155|0.031688900430|0.163566802455|0.089371322219|0.046781321587|0.409118588925|0.391750566315|0.297973561621|0.258446562563|0.259034656300|0.009558366391|-0.039187959269|-0.036145623216|-0.266380853969|-0.026784453029|0.128206049919|0.027638785074|-0.065878251935|0.344499724425|0.174608895026|0.265402995139|0.297017283875|0.344086366683|0.205653976043|0.207868549265|-0.064280592778|0.026367010310|0.072588596946|0.011237870585|-0.072806865068|0.182223639964|0.058312709324|-0.049544758310|0.167785591489|0.160043354527|0.048771609636|0.176252321963|-0.051453481316|0.080101404310|0.024990763751|-0.070279793113|-0.376282212761|-0.172063178644|0.027737028221|0.094991570197|0.019829349627|-0.014347127334|0.162262735116|0.226926646217|0.296488330688|0.448843591738|0.535715410756|0.246191747760|0.176092228266|0.084183497265|0.004751059759|0.330951313491|-0.210678131059|0.309031353029|0.361632930744|0.229551602131|0.253007159125|-0.156073591910|-0.187852688777|0.059019128184|0.131262093921|-0.022301796985|-0.005157902251|0.124260953851|-0.002426313942|-0.127964970867|0.141405657444|0.069676773841|0.080110443222|0.084255544614|0.149142036263|0.180951195034|0.421945568460|0.526008551908|0.392201252460|0.112916011022|0.013706487648|0.236393825405|0.056257178870|0.017512744378|0.060327648483|0.008431089260|-0.142051981720|0.190446316427|0.012838492074|-0.152020256336|-0.184273613272|0.143596897276|0.083631904424|0.152988309610|0.238531612937|0.179988083354|-0.089988349311|-0.041645184206|0.228769212542|0.225966689731|-0.150057357322|-0.276627715988|-0.393857901280|-0.160167909619|-0.127976019700|-0.282118299244|0.147655941599|0.146768074016|0.055274841630|0.089165628051|0.247861882634|0.269379363831|0.128011435744|0.066263364754|0.149024974727|-0.073605863657|-0.351258764270|-0.161788617038|0.082757114842|0.054818957738|0.171503350823|0.120992774778|0.474163980423|0.240854924591|-0.125547057953|-0.289016919315|0.103505243165|-0.009096915963|-0.360284708183|-0.328783910188|-0.555574457400|-0.374544919913|-0.388988749958|0.022851529241|-0.142735738977|-0.162393518855|-0.013991303911|0.006254866830|-0.063926504324|0.181653379741|-0.063141991363|-0.193094499008|-0.109546235657|-0.105225804406|-0.137482964787|0.048382420624|0.173201827081|0.247737475712|0.005593585140|0.101751664137|0.135792106414|-0.265923142263|-0.472740175492|-0.153654753746|-0.265962063776|-0.317432986766|-0.391620319046|-0.334693311362|0.026374757965|-0.219451429020|0.059115587210|0.074260303573|-0.117343934883|-0.198047753143|0.070178247487|-0.129821247239|0.129404615273|-0.088312333567|0.090037289442|0.077647427164|0.236773077875|0.184677868985|0.005219831725|-0.068953123647|-0.007905026694|-0.143030535503|0.089636210298|-0.095377739360|-0.111795967508|-0.138398560787|-0.269105475858|-0.076711305926|-0.068112598144|0.076569530439|0.050910701110|0.113888682172|0.301944503752|-0.195887318098|0.020221343576|0.082482075647|-0.058371433795|0.080731212414|-0.003713958036|-0.154368295922|-0.097570663495|0.220532481021|0.265130981222|-0.061349854092|-0.046372324382|-0.078471764698|-0.130687277122|0.029943499159|0.157459367558|0.057833651225|-0.424142364556|-0.065559387964|-0.196107836868|-0.333604873320|0.011534453093|-0.033464077796|-0.068412582068|-0.034934287151|0.216396443918|0.376968683222|-0.021654879373|0.190045766991|0.248057270105|-0.135901707970|0.126402277656|-0.184262720752|-0.053197485054|0.109316081842|0.060370290699|-0.081614659886|0.229027778925|0.000833185031|-0.058754285131|-0.097825216681|0.343367942784|0.108426126629|0.107393372480|-0.212934470509|-0.323204667271|-0.421208550544|-0.075945278757|-0.108798813967|-0.067337083065|0.124269573834|0.170743258149|0.367144379401|0.234914485366|0.235494862431|0.306822300435|0.445052161412|0.129363172169|0.045501066787|-0.288419897752|-0.085286368222|-0.097417377680|-0.223090763463|-0.142995053120|-0.054673905921|-0.085088478962|0.116065069132|0.086510301491|0.087134630965|0.399505815013|0.123193905903|0.010297848771|-0.520378349818|-0.541971560365|-0.206950094223|-0.104079823675|0.258745746526|0.145978620353|0.144893649461|0.164749347171|0.104996032791|0.325768858768|0.197121543068|0.154978803292|0.200648567835|-0.143790653959|-0.212844494363|-0.006680649972|0.227118703388|-0.054835104947|0.015645628436|-0.180293927892|0.223273387441|-0.093019512565|-0.003872211575|-0.023212676733|0.179771776539|0.429639507852|0.230931411628|-0.154802053559|-0.415280238546|-0.428267661433|-0.222800857957|0.128018622572|0.091921178548|-0.064677609241|-0.085265360877|0.323089114254|-0.179471268982|0.098883321184|0.102050417124|-0.042213588023|-0.227159507139|0.152929009296|0.120674772965|0.017514823995|0.047337767080|-0.208616503578|-0.283374995072|-0.148537820139|-0.036435612755|0.004267798631|0.186252656243|0.178600917603|0.327464021930|0.369905548708|0.228305706508|0.334197878690|-0.039944216124|-0.436980178327|-0.092099224549|-0.333465960103|0.052098578655|-0.211458434917|0.067672677864|0.213950425333|0.037647518392|-0.345888896838|-0.313456212726|-0.067287875765|-0.122325482810|-0.148736237359|0.160283492696|-0.077071947581|0.142711361764|0.124902948456|-0.000345580969|-0.160881109471|0.006171287604|-0.022991001489|-0.186462342774|-0.052228649356|0.336517337438|0.013074399885|0.146165954614|0.139158999344|0.105555260611|0.185518603977|-0.200055031405|-0.233871278044|-0.178985889333|-0.329506085120|-0.291734090443|0.196291627523|0.130365494709|-0.049923282971|-0.053858030185|-0.165907499906|-0.123894194381|0.001727563274|0.288660324392|0.075794824528|0.184023384381|0.173581889759|0.017106805360|0.049996543979|-0.107126363651|0.113805483491|0.121726778279|-0.111885789295|0.244213401928|0.171777381991|0.052747092305|0.226487590523|0.251655412035|-0.092782362876|0.064243509715|-0.102442748467|-0.148577039069|-0.335033669730|-0.433795742959|-0.098825069205|-0.098036447541|-0.047892909745|0.088870635507|0.099097923798|0.044544710858|0.235848878582|0.144716731953|0.116474538583|0.081361155185|0.094488056615|0.084668385754|-0.047747940666|0.322654970956|-0.047213922105|0.080134876139|-0.090086798750|0.241266140638|0.070996448444|0.206588447635|-0.004538831058|0.279208725783|0.232477907951|0.254828573227|0.012269189134|0.079003970014|-0.038432750589|-0.041216532327|-0.071927341529|-0.040109791422|0.125294065738|0.077178873337|0.053625742699|0.031956046327|0.034700736651|-0.220340597730|0.017372767547|0.091238413422|-0.128662731226|-0.017654464644|-0.159466933247|0.156458971689|-0.038140913711|-0.011815815339|-0.108429726019|-0.091038634261|-0.158286214528|0.199818369749|0.127017621585|0.316647675612|0.043885729745|0.216758945194|0.244238300755|0.230970690318|0.029212184983|0.250851088015|0.104839808104|0.170127898724|0.116556949590|-0.114253553724|0.277055410301|-0.111359676587|-0.101738175893|-0.196608253332|0.035917004099|0.051400893389|0.074723684452|-0.162631477226|-0.122085208049|0.269397891619|0.002481225109|0.105122738213|0.070242388589|-0.061065964993|0.055698692269|-0.092722575546|0.010300549582|0.054132524978|0.341218839720|0.236955734554|0.407348551937|0.345845600133|0.205173038863|0.435505562449|0.372839745508|-0.033429451780|0.049097284940|-0.029416058484|0.068772030726|-0.184729429072|-0.291564714452|-0.213927495067|-0.105757856698|0.065609894792|-0.041735846581|-0.052575555438|0.239124296391|0.088347654204|-0.075035731377|-0.057462503738|-0.015991474531|-0.069941988066|-0.114927505025|-0.023033544863|-0.112750043425|-0.006639990481|-0.302306778109|0.021743961344|-0.047526684864|-0.174116597126|0.026456027665|0.099195220239|-0.254414230643|0.003905680329|-0.393667772159|-0.000600495142|-0.009930008648|-0.191272521178|-0.112898952189|0.048142186669|0.027471360684|0.249054130760|-0.068443825429|-0.162597403124|-0.065426190170|-0.075450728932|-0.073740233316|0.080368095920|-0.016996809771|-0.008085932443|0.066443606594|-0.233360507685|-0.049801477561|-0.205517249587|0.035109734275|-0.055613926688|-0.068753053918|-0.056401075860|-0.355682518433|0.044184397041|-0.140235303617|-0.199205490241|-0.058263019337|-0.244562817564|-0.242028698846|0.079765403449|0.153509786417|0.091854357116|0.003097592956|-0.025147317410|-0.009063177054|0.047683150499|-0.176573637839|-0.010836629537|-0.125642045105|-0.012972032013|0.020685377983|0.215504420180|0.036639445397|0.115828320125|-0.058389635172|0.018152109132|0.245339127628|-0.199635874293|-0.074342789039|-0.056792599710|-0.115968414985|0.080630524894|-0.033848821283|0.116860999334|0.232452773543|-0.172146364242|-0.159073952375|-0.071627838149|0.020580074697|0.191317295370|-0.038340546481|0.204716892476|-0.237014940672|0.114897145430|
-0.038640151494|-0.103130872466|0.225517822476|-0.124396024159|-0.041279506186|-0.181946748467|0.026882472016|-0.060538909494|-0.025024815521|0.036814531347|0.284319439264|0.184787445046|0.035363841857|0.238206304277|-0.088310040825|-0.078602371202|0.008539554552|0.061806029817|-0.069514946436|-0.150624494799|-0.213969132407|-0.009759945278|-0.172331756985|0.217611773615|0.193248895660|0.115403319043|0.087323583050|-0.059739293731|0.047126253045|-0.156024981445|0.062358326087|-0.060710281036|-0.128212364338|-0.169724343373|-0.157776707648|-0.061290609615|0.147804435672|-0.049434496010|0.127606438892|0.106405675087|-0.058233551613|0.180554105057|-0.051325237121|-0.128953553235|0.012534421047|0.247252058653|-0.110838038278|-0.079702978487|-0.144627546762|0.196594282239|-0.048505115739|0.047182006353|-0.061717880558|-0.037375232190|0.032688932291|0.159367153389|-0.070616027260|-0.109562534754|0.175607784858|-0.098563681317|0.059836458164|-0.061170095580|-0.013200951985|-0.039075410695|0.167769865501|0.030945646885|0.120387381735|0.095459618168|0.007716166971|0.165184936956|-0.168005987800|-0.091273282043|-0.029489083167|-0.252426282580|0.192760049614|-0.070746777831|-0.043754278080|0.025094218695|-0.096682768732|-0.124472198706|0.186024620645|0.104251712611|0.007175072684|-0.028922414864|0.019012614735|-0.064925817720|-0.266624020966|-0.244674621595|-0.070260331610|-0.025233159304|0.008202117805|-0.266070551377|-0.000463654406|-0.196248365688|-0.220977887289|0.147917174762|0.090173024114|0.047127014677|0.112896272891|0.134956569787|-0.141600415523|0.248816848979|-0.161174919171|0.017835491902|0.050161561173|-0.013298605103|0.062067117914|0.132025485092|-0.094011682640|-0.052171554445|-0.180257427613|-0.037978699950|0.159669208057|-0.014666583123|-0.270614227304|-0.036009272387|-0.026940542326|-0.089400665560|-0.196816473132|0.019042497022|-0.232259882392|-0.057276445308|0.037542811275|-0.271614179775|0.048742197153|-0.027082521007|-0.168091987581|-0.058360191290|-0.124265907508|0.093214092108|0.027960165780|-0.046517908551|0.323706269723|0.043528455538|0.239458060847|-0.167582174882|-0.032485788614|0.043059658003|0.109247310755|-0.090332117394|-0.011825570262|-0.086485820504|0.029940419321|0.021537001936|0.046995505071|-0.016217536031|0.141996805934|-0.027266350663|0.117797296304|0.054590239209|0.031610840643|0.003035040717|0.088028678204|-0.154473433494|0.194759580955|0.057163120828|0.057334589323|0.006764572060|0.292543950236|-0.126462155722|0.066285809142|-0.020868782170|-0.170388419846|-0.231697799322|0.105860386016|-0.126098686375|0.014650297521|-0.065871136923|0.053283049019|0.120453461297|0.023178787682|-0.047688308741|0.150671018953|-0.110066405743|0.022532201308|-0.127743828619|0.155035961109|-0.190002388608|0.025577241982|-0.001587083617|-0.134405388082|0.169839565237|-0.041791186909|0.016753226394|0.025032361115|-0.129395404784|0.233642076833|0.037053512832|0.072431951246|-0.051028128780|0.036950019153|0.138777482006|-0.089194909846|-0.133508262028|-0.119705163518|0.053611513876|0.320471266882|0.015650212336|-0.234395461433|0.043766430780|0.045808396631|-0.043279091186|0.119838140462|-0.147242104787|0.011922018281|0.109991524955|-0.145437008045|0.086062554238|-0.015489090475|-0.038595822708|-0.135014784123|0.132690015605|-0.046191030119|0.194736705133|0.088751122387|0.360480542191|0.077039452595|-0.016326887674|-0.307412425973|0.163472770365|0.073305686603|0.202650220197|-0.012178636115|0.138208353768|0.217082195483|-0.064156056577|-0.077536131494|-0.114360878252|-0.165272574193|-0.067196634775|-0.042124331095|-0.084892107152|0.043910237674|0.287774713441|-0.062978096637|0.045463447602|0.137347052242|-0.080890906361|0.183600254204|0.009736485927|-0.093417236785|0.141868324781|0.270472391509|0.153889368162|0.098045742111|-0.146397577543|-0.015670862695|-0.028894925496|0.254918757105|0.046626744117|0.065086373989|-0.118094893504|0.052005586580|-0.032212619526|-0.034378028843|-0.133810746452|0.043985422781|-0.101600228513|0.109038489552|0.083977823028|-0.116430885989|0.130985221699|0.485418457023|-0.177353195232|0.214817900948|-0.070254289158|0.078882618682|0.333608131497|0.019273845051|0.274011581481|0.190696042327|-0.138567466200|-0.069104580754|0.092315418319|0.120442423586|-0.041840893180|-0.005472456397|0.040228037541|-0.180666525302|0.098951627866|0.149522109947|-0.112124964589|-0.109024755908|-0.075407579269|-0.207432993230|0.028045574485|-0.123697801336|-0.009408231562|0.028088429253|0.131267757150|0.114128674509|0.229180992164|0.152938524571|0.046666264187|0.046138830737|0.170294479643|-0.035394213177|0.055425321026|0.156331894316|0.003333480396|0.172989537004|-0.181979742642|0.087231146539|-0.174922965052|0.077455878144|-0.138437660591|0.009701716864|-0.044589145624|-0.046669359900|0.068357201494|-0.011613578451|0.096794067550|0.004299049597|-0.305848418286|0.106071390337|0.078225662733|0.015992179985|0.167860250864|-0.166254207830|0.207170130836|0.099119753070|0.011801399773|-0.191621121073|0.031453582617|0.245809650107|0.138810332160|-0.077299091770|-0.034627483524|0.005495536551|0.107419165068|0.173534744867|0.299129828503|0.098205488344|-0.026952827308|-0.014046753546|0.103459604823|0.077624727034|-0.048381881420|-0.042213168327|0.222212806286|-0.105520325106|0.189330526909|-0.026457480343|-0.050445319919|-0.060761329102|-0.012708741443|0.026476248210|0.136275641319|0.102771761868|0.066333806364|-0.080314612942|0.209254591322|0.154993653856|-0.199580454878|0.055579458925|0.083719612123|0.104303877419|0.134365733677|0.072718166083|-0.049984354206|-0.027328327232|-0.087257582422|-0.091852900800|0.004282774695|-0.051406568841|0.064465615959|0.045547186484|0.042618375032|-0.106607606936|-0.241899681300|0.047398305921|-0.108901195083|0.048217964108|0.163486233983|0.124288099501|0.115766492176|-0.098490063089|0.086401853568|0.070522114544|0.242209220379|0.027697916414|0.000597543059|0.041953331959|-0.227202528390|0.223385462929|0.074810860142|-0.015173192734|0.094887616614|0.143252561460|-0.045828328530|0.225192673203|-0.070541098426|0.251874456160|-0.033997262159|0.075097707306|-0.171047906822|0.086304141914|0.035608647639|0.113408440662|-0.201285381124|-0.235105807697|-0.133505079198|0.084282812975|0.219797815385|-0.057856019442|-0.060196571234|0.059380872937|0.011389053315|0.115923650877|-0.157242599856|0.079966939857|-0.017295268160|-0.001435172026|-0.027998683935|-0.087582281509|0.037914651419|-0.026935370014|-0.074474797714|0.064888405108|-0.152641961863|-0.061872472998|-0.207154365212|0.037118131313|-0.054475103262|0.187678481894|0.082111944303|0.045525644547|0.022404363067|0.016819928664|0.021079413825|0.060799578435|0.094965068157|-0.122119124768|0.116979863423|0.352327105400|0.042467415051|0.054317106106|-0.036308816946|0.127438927630|0.060451607194|-0.071536822903|0.190510238001|0.172031045582|0.036366723899|0.034102861120|0.076536659103|0.301618990944|-0.039568214427|0.323554350127|0.007301156317|0.026515302887|-0.175547523564|-0.207583169506|-0.087871076499|-0.029595650351|0.014280162473|0.213431546038|0.055029432780|-0.103849342821|0.161283711995|0.040607337026|0.249445513114|-0.088594249295|0.224253767148|0.130623362535|0.002655336308|0.470761275782|-0.006487389956|-0.126550944932|0.141669173597|-0.068587776709|0.062217971388|-0.044693367413|0.056492227980|0.055457131875|0.272964386149|-0.006281336858|-0.140232904065|-0.009383741808|-0.083415063578|0.059463144280|-0.191600250560|-0.045711178115|0.038294550326|0.102404026506|-0.222959887865|-0.029722893933|-0.277080106157|-0.089695132485|0.228904325822|0.144521522141|-0.091420056233|0.106524457166|0.023539011187|-0.015238838177|-0.077428987029|-0.103255072413|-0.066012189337|-0.051464669952|0.046972230414|-0.238829877231|-0.066923495141|-0.141132065602|0.069707006644|-0.177201816787|0.024814305283|-0.040700391131|-0.038034008540|-0.316526766549|0.074076845477|0.016569887359|-0.206543835035|-0.112783626084|-0.047158960202|0.009770680909|0.063185200935|0.006480584300|-0.030243494438|-0.137038709033|-0.013646235697|-0.039422198296|0.073428713002|0.029169874817|-0.033519479352|0.216603798068|-0.137887203399|-0.083453996757|0.039798472419|-0.115834147285|-0.028379721348|0.067177878158|-0.124584348838|0.033903640127|0.097591275579|0.148309250174|-0.040509747687|0.052718646265|-0.186892879345|0.176634905786|0.046705425043|-0.082644620201|0.239909198299|0.072856569178|-0.003075609060|0.108364903259|-0.025633716884|0.057775069174|-0.142305325410|0.023471791832|-0.014661934390|0.040612010704|0.105360678169|-0.181620419838|-0.039278586763|0.054893876911|0.127744217684|0.021527522345|0.045692034324|-0.046428888851|-0.047244847312|-0.047302625705|-0.203691972520|0.050589502636|0.042869521805|-0.012952173476|0.091772378001|0.191665644447|-0.094308827353|0.031079330964|-0.053438059009|0.117896658083|-0.006957445462|0.209820046669|-0.013179907477|-0.054804837930|0.073518456227|-0.046884953287|0.190047526507|-0.097652619551|-0.128290540613|0.102179341437|-0.058516213838|0.081168743220|-0.104971737654|0.096263716110|-0.075026082907|0.130673158667|-0.143323987806|0.022093172822|0.026754559953|-0.124335035637|-0.309404100783|0.061983648030|0.096671779390|0.070491693995|0.057080945063|-0.123638674220|-0.136020017136|0.041605415752|0.047743092950|-0.051846913283|-0.008188207402|0.110779683278|0.130930665098|0.160711785167|0.030604564980|-0.156671180825|-0.019375020985|-0.051531988727|0.026107466047|-0.157163134825|-0.253610113998|0.181555984122|0.065997837741|0.097546122610|-0.002994914821|-0.034187315466|-0.047733258967|0.108759991498|-0.112560202262|-0.145039771986|-0.100660272551|0.050536216100|-0.007533009375|0.029339496793|0.098908918151|-0.056750052420|0.170333404054|0.124500032092|-0.086155911129|0.002903918813|0.114160394876|-0.078289957177|-0.139399379962|0.003447344019|-0.141802667203|0.061605065004|0.001331751187|0.022160849608|-0.091226746651|-0.159992391854|-0.067889692109|-0.158938935901|-0.105028177024|-0.061482022791|0.082002607560|0.067802845068|0.114982878382|0.376949502474|-0.155539232364|-0.136001122006|-0.065770629396|-0.169687936369|-0.091499584383|-0.344715536738|0.207203633760|-0.080492732265|0.150265361310|-0.008048683962|0.234290820756|0.093213891428|-0.131668860168|0.010919183197|-0.036280064312|0.065049945981|-0.098929151330|0.042027457653|-0.135600845167|0.069358124010|0.111566676994|-0.026432105472|0.107900282656|-0.211473817390|0.148247958447|-0.137654356046|0.059933756142|-0.072662152832|-0.004069198182|0.039668963207|-0.055874689280|0.012685158363|0.035375230365|-0.122268595621|0.005210810005|-0.094205933420|0.243913100802|-0.019450542640|-0.265413051748|-0.266581179513|-0.177929529845|-0.142347027960|-0.094545951761|0.018830144384|-0.031922313784|-0.160107230017|0.092408702440|0.051218034178|-0.230349770198|-0.177112410903|0.043613671626|-0.235679741461|-0.010874734591|0.100764781195|0.235883930199|-0.130777542572|0.048232174333|-0.017374713000|-0.010413283131|0.034853658116|0.108363260256|-0.017537160358|-0.067467462353|0.166889501207|0.009780915285|-0.118841500478|-0.045237925369|0.029261429637|0.045078300806|-0.017607051430|0.129296671686|-0.019999602292|-0.126697582704|-0.111576190015|0.015232274103|-0.008374471310|-0.072228835125|0.091156369983|0.017646497307|0.055090091490|-0.022659468316|0.099040391462|0.100177192465|0.093118886009|0.040912246756|-0.100405879751|0.048158857465|0.176081864651|0.190350345995|-0.045706465692|-0.223267100535|0.007723880375|0.033710382600|0.001702075773|-0.043762464934|-0.108326446039|0.305344034682|0.219336527082|0.286468599258|0.247422912187|0.056677296705|-0.054468423096|-0.053516771387|-0.088893477437|-0.033663625519|0.124336759461|0.017286170881|-0.160386724569|0.314256439508|0.074970894354|0.061806574430|0.184647403224|0.068415469826|0.214986249546|0.264661781762|-0.224030504742|0.010957739149|0.117869651907|-0.008895542347|-0.043189493955|-0.047649182532|-0.066106306821|-0.261092515720|-0.035725122392|-0.074473974281|0.161486190924|-0.083190306508|0.002358311777|-0.041140499504|0.169390138819|-0.011976219311|0.092316270532|-0.139636711403|0.006678970129|-0.059596246089|
0.197225728755|0.142136242900|0.069509886859|-0.105586510884|0.116196167647|-0.043523899061|0.064384444264|0.269647928854|-0.018550392097|0.266821462757|0.087037487026|0.101268344160|-0.125652731844|-0.086735708713|0.019674502610|-0.043424196561|-0.048724436671|-0.072291903810|0.073080245224|0.112454533486|0.248822422618|-0.063577591982|-0.043988927307|0.038767440491|0.255589481781|0.008346787920|0.052630344167|-0.107734148956|-0.273040281645|0.304577814767|-0.041438699993|-0.082317352995|-0.160604400601|-0.026981589946|0.244334411848|0.097939136295|-0.002955722276|0.373105507140|0.005246456221|-0.128700517111|0.118609497049|-0.189847808682|-0.274896684023|-0.164643514019|0.034889105366|-0.005325451331|-0.035613336222|-0.042397181384|0.011074328736|0.027650379503|0.095340220060|0.048602013490|0.038405588419|0.050661661204|0.129824542425|0.103857753940|-0.144217051964|0.075950261496|-0.006770650458|-0.178401308686|-0.033998177147|0.132528929232|0.188352661718|-0.026385301486|0.012781698331|0.110267224234|0.037435750918|-0.071769361757|-0.021315138805|0.100563041584|-0.036955688014|-0.121120989042|0.108627551316|0.240052707104|-0.173935521604|0.091697388522|-0.012353759074|0.029485816464|0.173778901808|-0.032505670725|0.003724649576|0.011544788649|-0.123429025530|-0.133655734355|-0.057979758246|-0.057405971903|-0.004587928311|-0.024465759445|-0.109899850135|-0.053983831511|-0.152114778032|-0.242085160828|0.102310030576|0.024231567268|0.015521444049|0.050564634340|0.090440647760|0.342023350594|-0.056662356405|0.102523387138|-0.024638557531|-0.098685510207|-0.181976820077|-0.098305234225|-0.038304026677|-0.273599102777|-0.014785475714|-0.050784013330|-0.126697689388|0.127866424089|-0.001854817455|0.111272410179|0.007932225320|-0.169696411712|-0.079621285570|0.011610067803|0.018978747970|0.019238668941|0.017895752171|0.069953800885|0.128012086271|0.269645902006|0.209038620108|0.479394514971|0.180238086528|0.057768048302|0.116621690997|0.089004287608|-0.037248850700|-0.152938155276|-0.155862985170|-0.053913986848|-0.135223748487|-0.194572694869|-0.023774381923|-0.252602155915|-0.045993971376|-0.002060229383|0.051876691426|0.160029318176|-0.011163571710|0.196267366752|0.084808402605|0.053338826824|-0.094749260961|-0.179136016012|-0.029154301351|0.354815669613|-0.096859354699|0.180990945733|0.057159802867|0.277484954357|0.231287069085|0.169088130711|0.338586240446|-0.012589722852|0.207340419376|-0.028223672690|-0.064770609584|0.118160778854|-0.077233341007|-0.047867832032|0.057839077057|-0.193423131545|-0.135374793997|-0.180756820444|0.051278593266|-0.031415994240|0.042717194347|0.021594767958|0.111027102459|0.052119777484|-0.053458505950|0.161108663440|0.187482391964|-0.164374007965|0.031485000142|-0.147527328389|0.030180697878|0.203581872484|-0.144327980756|0.124053601034|-0.054855156610|-0.089041997378|0.324333334499|-0.138326532243|-0.116440823746|-0.106191463249|-0.216639456683|0.048559160633|-0.355862160979|-0.117392448577|-0.082013643003|-0.129125836640|-0.120805514844|0.164773904545|0.156924484540|0.069939132899|0.038479249601|0.030740455459|0.003183214555|0.092042077443|0.105486169895|0.145763531698|-0.096315323219|0.074191154214|-0.153601316448|-0.122580418958|-0.005123631020|-0.089134083021|-0.021141624098|0.159566702651|-0.133335787235|-0.215154330091|-0.093229218687|0.010958854389|-0.089210003083|-0.051917735129|-0.169811076632|-0.308452708171|-0.187055808406|-0.246770660725|-0.092595815399|0.208182139157|0.055162672288|0.003666735570|0.007673143542|0.112738350540|-0.046430237741|0.166170474240|0.295019932099|0.218380954702|0.007906984461|0.129290678050|0.187539851928|0.084847365728|-0.028068412360|-0.027680581159|0.143285233737|-0.015212914818|0.007302267404|-0.243016114580|-0.150906908557|-0.211646501865|-0.275977192935|-0.227934989132|-0.221435309133|-0.358977563670|-0.341933071017|-0.189079358477|-0.056602158083|0.076777792483|0.253101688093|0.090830459674|0.180939516774|0.118992982949|0.005020678275|0.062372257382|0.285064467613|0.096945293152|0.221487599231|0.181238946539|0.021861195524|0.041039829768|0.051495085044|0.030892352608|-0.003674586219|0.101980529522|0.304205889244|0.265737979074|0.237718147745|0.122354930963|0.180959706872|-0.132388393743|0.103495202511|0.082311423611|0.026636676497|-0.201920851145|-0.089836956384|-0.149772098232|-0.010696337270|0.154257143857|-0.039707690366|-0.043213745102|0.347229296713|0.206299617040|0.078754920550|-0.002359389010|-0.006463360255|-0.098122359998|0.016922863436|0.111275175640|-0.084170724590|0.130763086891|0.016565332665|0.204400795094|0.236858393052|0.661471368324|0.848264460601|0.822611854063|0.571876868168|0.453814837002|0.594029899131|0.164490276768|0.228558897114|-0.123260463438|-0.013892250609|0.006168425302|0.006728455284|0.013660456818|0.043189921166|0.159436408294|0.117743467360|0.151883955331|0.075843526077|0.145375573386|0.224847897451|-0.084008453623|-0.204222700863|0.053471865256|0.198922385239|0.140958546893|0.261198678152|0.200888831112|0.064484806654|0.287535008031|0.637407290427|0.788916910110|0.727991545823|0.523740581597|0.657454013016|0.357219338932|0.219841986337|0.168764934635|0.004245935289|0.019856391898|0.053509769302|0.090253786964|-0.025815230654|0.008742570762|-0.076881268638|0.127260484908|-0.030375731016|0.063909770205|-0.170816111648|0.010629760705|0.128409775650|-0.228405426116|0.036433541418|0.092271363194|0.041714066078|0.066443090991|-0.156919966854|-0.283631717688|0.030090816237|0.305606813773|0.592342841591|0.474562053750|0.173913014325|0.541438585166|0.164999058747|0.048575021952|-0.124596584314|-0.037291116645|0.093388112944|-0.255550803025|-0.304169275066|-0.018812667495|0.024329938342|-0.102387332023|-0.106777503623|0.011852326841|-0.164638241523|0.084412265738|-0.059729847311|0.035526596431|-0.293314253665|0.114371248821|-0.069407653801|0.192810038730|-0.143547116526|-0.158964833620|-0.208770436521|-0.111546832230|-0.136918489404|0.292938812910|0.326326227808|0.064688599872|0.141309069602|0.029803105175|0.243291060698|-0.086955037200|-0.030528931908|-0.258895027030|-0.041905416193|-0.117150408126|0.047177854335|-0.175108496516|0.084078722311|-0.009188456584|-0.327034342514|0.105226774353|-0.129363269440|0.129763090254|-0.190245080397|0.158920750018|0.230506597842|-0.072882668285|-0.402006414912|-0.138809033885|-0.115108707665|-0.039455341976|-0.094677471952|-0.010974498703|0.227854191627|0.209963216216|0.289902511609|0.060273509658|0.162920787867|0.056937678267|-0.087160359070|-0.309690395972|0.118283817753|-0.167691170273|-0.197224282745|0.070980924162|0.099439226232|0.004633302475|-0.091622980267|-0.269978544339|-0.100760144507|-0.138107030608|-0.113374136083|0.033778446165|0.209069286377|-0.078573681499|-0.155717564872|-0.156022733855|0.011771087576|0.042595950964|-0.038294710734|-0.079999025684|0.102911685544|0.159539849855|0.142834910353|0.044065139486|0.129876995312|-0.207888903033|-0.211824138972|0.132548160080|0.249593216418|0.079740756737|0.022320876885|0.131087385163|0.347445333952|0.115998338018|-0.003454711112|-0.103914290557|0.041062468953|-0.146239593661|0.052459431947|0.176628764444|0.056376039436|-0.005492001613|-0.168697347809|-0.087607973828|-0.107086890293|-0.094485724883|-0.068739474545|0.018123514777|-0.192712073262|0.209031451314|0.022939357112|-0.014781205721|0.274872557012|-0.103815664550|0.060742449337|0.325897888391|-0.077177480664|0.205133223784|-0.150176905367|-0.106977945086|0.088501309195|0.233892349629|0.132913980829|0.140198482075|-0.030946371797|-0.015878325520|-0.037816244125|-0.128108065447|0.158102908402|-0.317464247199|0.082026715516|0.063311468856|-0.154191705630|0.033677454291|0.019852327472|0.007980407018|-0.102674812953|-0.070644716433|0.178098851852|0.045932097416|0.063749189232|0.029835005229|0.132386422971|0.070524004643|-0.007058226812|-0.084337040919|0.253492916449|0.044297241633|-0.065165754095|-0.198660159424|0.034051956363|-0.037936941266|0.103213375270|0.091046491830|0.185984795922|0.241835141139|0.004018974157|-0.145163009015|-0.006214015908|0.019293790668|0.139250727868|0.189438191846|-0.006513813699|-0.064093773978|0.095509591890|-0.083651783441|0.283519469494|0.040833861188|-0.019801046816|-0.151518226617|0.105784008697|-0.180366761939|0.073500817978|-0.026050583763|-0.164434051640|0.026644245885|-0.313110351953|0.061766687673|0.108440861932|0.073152681855|0.241850590290|0.036252595637|0.029080055857|-0.004547970990|-0.020261193885|-0.068891675567|-0.147398623446|0.183360031555|-0.057492520303|0.019900272817|0.241908356191|-0.055337742788|0.114897033588|0.079115451742|0.029530890007|0.133198165881|-0.075479900057|0.052029120256|0.129646587962|-0.075009847728|-0.284662548101|0.117323858346|-0.078731247964|-0.090291661852|0.155594045492|0.205194334253|-0.141441325047|0.134798000329|0.057337290344|-0.086339383105|-0.046103823813|-0.194764000945|-0.031007392908|-0.151550935056|-0.124816467282|-0.042771662719|-0.174411491625|-0.100960438932|0.082083959382|-0.006830249642|0.005182039212|-0.211209678243|-0.071084687090|-0.007733510146|0.071773074363|0.116942279493|-0.105966251316|0.236737725307|0.313175042066|0.018099025359|-0.035090601636|0.149581141700|0.058195294319|-0.178739116669|-0.045583140229|-0.016223558621|0.015995277909|-0.142162636838|-0.158978456576|0.044547361295|-0.228077676081|-0.114126789518|-0.096683564765|-0.149045375385|-0.002644694797|-0.057910627086|-0.066851535645|-0.292045910259|0.029494878439|-0.196422809918|-0.234688640641|0.066832188683|0.199326071138|-0.077896195107|-0.074899448752|-0.088175703431|0.065366062832|0.062595824325|-0.082751884747|-0.010317859211|0.278836193720|0.178594379175|0.117905405912|0.136345937957|0.049586912837|0.024710346327|-0.244086435829|0.129811419338|-0.082808534775|0.043129474984|-0.145260760206|-0.070516890832|-0.159266472013|0.083789954408|-0.236314086082|0.277573862576|0.027970441744|-0.059564890997|-0.137796099101|-0.144335920071|0.039457956075|-0.053539294444|-0.231363007712|0.131755224526|-0.185741035578|-0.016002866172|0.144620084775|0.180381693598|-0.034046488383|-0.009716577438|-0.001396237121|-0.000331357696|0.005946149208|0.102097298798|0.140836238269|0.154138917463|-0.131035924887|0.089854535674|-0.144969791258|0.144707073803|0.152391127301|0.073426521548|0.079688446477|-0.229166063379|-0.080331009664|-0.187180521324|-0.013093772906|0.082107724709|-0.082295335955|0.108869888839|-0.161074094360|-0.091246172203|-0.015471878121|-0.054560435159|0.255127037861|0.198132074887|0.289190664583|-0.080540196919|0.100529593264|-0.029570287843|0.099933000666|-0.070487369496|0.038194469010|0.119320155935|-0.100156473662|0.002180805294|-0.002776621495|-0.031301236724|-0.105814895498|-0.106140128807|-0.167404473738|0.128476985487|0.077745827178|0.041732262849|-0.100020253311|-0.089958813562|-0.258804845463|-0.248456815294|0.262967320646|-0.122960529511|-0.132561020330|-0.050020596380|-0.094237455974|0.057226690999|-0.082512303806|0.160957295503|0.018706968210|0.026407719387|-0.040510632347|0.111045182502|-0.042687678072|-0.130581533631|0.075348348885|-0.146674253567|-0.007203383348|-0.181544021369|-0.014334235331|0.273438452603|-0.033630967537|0.052929139644|0.094871759856|-0.027343569637|0.014621550760|-0.100616979217|-0.115594655577|-0.070212846642|0.114531683303|0.152821178858|0.055940594666|0.085959467419|0.192972804835|-0.065869919821|0.032312570104|-0.140010078662|-0.090206982680|0.022812348872|-0.100298467254|0.135880774515|-0.039625571579|0.024360627588|0.072982680939|0.041066299848|0.026860542697|0.052307714826|-0.038822779467|-0.070283397531|-0.086961932552|-0.025530837917|-0.139456291983|0.096620559259|0.035555324612|-0.045689496454|-0.028170608754|-0.101644847044|-0.074487306790|0.002413886994|0.072031116525|-0.022431609127|0.071621154996|0.126819367968|0.110738574265|0.109261443895|0.169642108718|0.181897737693|-0.058382592263|-0.109481051803|0.078885527287|-0.054462762758|-0.011164698795|0.090508486612|-0.077271763501|0.072809015751|0.025559670641|-0.047971639892|0.077426417754|0.310136073485|0.189925160038|-0.266610992483|0.097164850885|0.129708526058|0.266982973605|-0.002061146711|
-0.042303344840|-0.058985679208|-0.103851201054|0.043062735742|-0.240610114133|-0.083709933523|0.037500153787|0.127781167015|0.026498355025|0.164704455896|0.055705619060|-0.005352143147|-0.148473311861|-0.113073659626|-0.313724443913|0.038085896639|-0.063517254794|0.162058359239|-0.081931864963|0.043288542833|-0.061259701202|-0.110917573577|0.111621371746|-0.049743085087|-0.119404597477|0.132721886766|-0.036114130812|-0.090119033254|-0.095550753956|-0.010579648234|-0.036086613372|0.049478051968|-0.088261694667|0.017729613815|-0.022857264053|0.010386908578|-0.001971211364|0.078519001520|0.006117617182|0.214736872996|-0.084432709515|-0.213183749446|0.164372269858|-0.002699063039|-0.032766775810|-0.110022977747|-0.082315638281|0.177437936577|0.194499588622|-0.020150033687|0.091875655118|-0.230011137332|0.147895312674|-0.052961572425|-0.225829728665|-0.124757512173|-0.093441484737|0.098035513200|0.059245351713|0.132083229641|0.013588715947|-0.045132370015|0.108095590265|-0.044829763091|0.160936574752|0.064294987216|0.004549271594|0.017768396817|0.013944290553|0.319466753052|-0.022801160669|0.228836123783|-0.016389649535|-0.097605751409|0.026598557401|0.288300583142|-0.016205479597|-0.085299740164|-0.110882003281|0.005520650658|0.222858754707|0.027501460847|-0.109525751311|0.031460315857|0.127478201336|0.039580061627|-0.037893034779|-0.213594760178|-0.039351235258|-0.134677675128|0.046414849512|-0.004007935559|-0.097838969966|0.032047962716|-0.023230449930|0.014085490944|-0.060221073048|0.276982508286|0.093788443525|0.168716487406|0.161722001168|0.240799178477|0.268597420311|0.313862727041|0.110205089831|-0.016214302747|0.058737233060|0.251409360157|-0.262621861757|0.137814126016|0.024354311890|0.021044294707|-0.023657501848|-0.063224425276|-0.037571482117|0.040859946280|-0.030063361175|0.142403364392|0.075479465280|0.162170297400|0.091088528516|0.007057768677|0.017152784683|0.134713795175|0.097196810718|-0.126109050950|0.030818595209|-0.021878309082|0.121222686844|0.210763542599|0.118195725742|-0.009910586295|0.194481366023|-0.067533671406|0.222952830203|-0.004774891373|-0.110180312360|-0.066425614425|0.071572900611|0.098458747404|0.073220245990|0.060208939361|-0.079793727472|0.121162052367|0.168851092908|0.093235511505|0.071218603200|0.001324538469|0.042528510529|0.048142222206|0.140192392037|-0.229731012222|-0.360132504622|0.032688464646|0.225245402908|0.251558836764|-0.045536865839|-0.096304868985|-0.161766355282|-0.209614532088|-0.434620845897|-0.183521858844|-0.359367336644|-0.320036231463|-0.037833856579|-0.106609248399|0.172191930336|-0.111993130798|-0.051694005992|-0.044399284751|0.094257656272|0.263458738901|0.329269426850|0.313922876227|0.407490695823|0.199941362250|-0.124375025607|0.090176134964|-0.218069127588|-0.356967265654|-0.344841918626|-0.163347015352|0.156111742588|0.234094555704|0.304975688702|0.301393437804|0.012399345407|-0.349127742596|-0.271192284268|-0.205039904698|-0.162794064289|-0.491586131734|-0.260238661668|-0.061023014560|0.034124893883|0.061101633042|-0.045793518898|-0.029620708821|-0.161607314688|0.002428135568|0.129605061175|0.253345607978|0.115093638341|-0.167198942634|-0.280007082330|-0.037295618679|0.066721066763|-0.305022629588|-0.121763073762|-0.092667394279|0.412960141247|0.466282901771|0.170364342036|0.277656940183|-0.261397635558|0.013472496997|0.032704653329|-0.225117451427|-0.202962563126|-0.304694656180|-0.210895270142|-0.097022283901|0.011181894731|0.041725265403|0.001310842812|-0.163433052478|-0.061776363113|0.178697811977|0.416114995777|0.163994719184|0.030398543226|-0.057873197202|-0.002742191170|-0.090939265192|-0.167308429105|-0.388953752153|-0.357918614568|0.140159729131|0.296318891882|0.357261367861|0.396807863198|-0.212046048289|0.297495945909|-0.092704469860|-0.101701841156|0.113110741219|-0.063872992310|-0.246937948557|-0.216597006252|-0.299257089844|0.025421912164|0.061713547268|-0.014546212844|0.069261237651|0.083663856417|-0.077860089627|0.250838325858|-0.010407094121|-0.010906240410|0.046850824391|-0.174383610183|-0.252180499839|0.001160971349|-0.287423409321|-0.187216427442|0.051171508502|0.390536596386|0.499231404514|0.011542483263|0.086125755625|0.096629998008|-0.046083013792|0.032919506636|-0.129014994295|0.051296229266|-0.163311499113|-0.680535336326|-0.186709597146|-0.068780925397|-0.004633643482|0.092322703387|0.180363371769|-0.086524948216|0.067114102408|0.071086137666|0.046627154661|-0.210041978756|0.047899573751|-0.068954210566|-0.394038706214|-0.056773180460|-0.363050556260|-0.389604247468|0.117316347918|0.151973265034|0.335720521437|0.270026232533|0.094612965362|-0.036564817180|0.056335414692|0.303492751178|-0.056864268404|0.051847132528|-0.104082229347|-0.357373613269|-0.178889491330|0.109253399286|-0.107147322280|0.045015114097|0.076389844261|0.159944544576|0.224191701489|0.089735610942|-0.056609013935|-0.351826588511|-0.311137157979|-0.282398895405|-0.288101761037|-0.294595116797|-0.303505470727|-0.526901421678|-0.050846777416|0.175795950080|0.375099579481|0.278469696490|0.285960609773|0.275263593675|0.154410266916|0.295606462826|0.182796472936|-0.015205478117|0.047514875086|0.178758833296|-0.179626423155|0.079005165285|-0.089991775293|0.183176451451|-0.060713059170|-0.195976301885|-0.133604874960|0.188780560469|0.031282257042|-0.066235217067|-0.197521139926|-0.083604016241|-0.137814830031|-0.106875650255|-0.019612110877|-0.313919826494|-0.188843206017|-0.074545575587|0.040551655563|0.344330175361|0.242748082514|0.238239842476|0.149252180307|0.180551361360|-0.174033495548|-0.102663062837|0.145610491662|-0.005087706095|-0.039501434861|0.167027621799|-0.058564087429|-0.084306331062|0.051114433935|0.105053236803|-0.015200588214|0.059712164941|-0.203790673355|0.066504968962|-0.092787753226|0.051599933578|-0.066931944467|0.188427799178|0.004162068291|-0.098758329779|0.033206847851|0.146432413717|0.205659396481|0.069546383317|0.216583215320|0.356675908568|0.146159688909|-0.037984110673|0.305012441458|0.093331045811|-0.074485431595|-0.034553633420|0.143704467136|-0.077345336467|-0.028395633324|0.037283706017|0.044746802601|0.040321302002|-0.012093368496|0.229210259276|0.002975109173|-0.029271122362|0.032994051337|0.056024744656|-0.058587340434|-0.165732013774|-0.118586047178|-0.189344755947|-0.155967005213|0.003701493595|0.182118152092|0.162816500485|0.214928400092|0.351512082853|-0.050567242061|-0.006167427788|0.070383081242|0.023696134621|0.098194234864|-0.111717531298|0.083687119311|-0.033483069214|0.091995417834|-0.180216309772|-0.234184876733|-0.112667830340|-0.108129014725|-0.121130470009|0.149377010947|0.114967125142|0.114514605031|-0.163642640866|0.031728034802|-0.160383215929|-0.100549211509|-0.465982251493|-0.322299946144|0.073047840199|0.209372312378|0.264010730789|0.372170357846|0.178592639282|0.091608232579|0.320410949604|0.050486619630|-0.090248090188|0.167468637180|0.081319572716|0.106024490155|0.006137255468|0.026396996372|-0.055194291789|-0.060206317684|0.272569074145|-0.016378618522|0.000560182855|0.018412137800|0.082748490797|0.333943971604|0.230660856986|-0.035129679154|-0.230632041335|-0.284264794133|-0.170491656019|-0.008143647719|0.238391663629|0.213331919783|0.178524159642|0.219439096048|0.328358065539|0.430794512885|0.409070728960|0.290062463312|0.303605111615|0.036426502497|0.170821618277|0.118250416030|-0.020976362020|0.125620926212|-0.074874673502|0.118170812520|-0.093195939293|0.068057679759|0.057038741014|-0.012374064775|0.167679764433|0.045612768288|0.160126048253|-0.195900361340|-0.293952586806|-0.230844033519|-0.296611732274|0.051454764277|0.040196864050|0.269088265926|0.115594582189|0.195876803995|0.244976001237|0.196238754422|0.102068477675|0.128505526079|0.310180495821|-0.034748662574|-0.292455524072|0.147648343977|0.037320192044|-0.059797465706|0.130037889458|-0.422074221066|-0.001379021204|0.114549138279|0.034902933086|0.432684592051|-0.057318643618|0.255478039198|-0.099537509007|-0.266797176016|-0.347237996806|-0.487193832872|-0.165925204317|-0.145657808368|0.115329328899|0.277581813558|0.140116697302|0.151609184430|0.134799350964|0.133073901589|0.234291731526|0.120847688394|0.154308434607|0.024462134843|-0.112096609402|0.199494712742|-0.236413539501|0.067835080409|0.070767348254|0.046528560290|-0.216844869686|0.076624387534|0.346731217147|0.123129552728|-0.043663056284|-0.133529662202|-0.506718559192|-0.327859973053|-0.367817662322|0.002710891638|-0.307272602756|-0.269434385536|-0.248730118901|-0.071321929926|0.242867579839|0.015626366341|-0.026718165503|0.080976832580|-0.185349388888|0.370417892879|-0.006334798844|-0.151520128443|-0.161554031203|-0.037030140483|-0.054746066508|0.087985510569|0.079655225618|-0.163099366276|-0.058675813896|0.241377025915|0.238902698207|-0.020451226248|-0.130895841240|-0.014258431875|-0.311780391827|-0.230027514682|-0.214913369736|-0.233983240399|-0.188954948996|0.036422812765|0.214331935255|0.002758499830|0.232774583968|-0.102548755801|-0.003127403869|-0.302185552340|0.275417410861|-0.007421786085|-0.063595721022|-0.179788347941|-0.083454722929|-0.003950605579|0.062534972793|0.060320685305|-0.026327069693|-0.211398001154|-0.079344076707|-0.119873501296|0.201791006967|-0.003117548179|-0.083961374415|-0.188841324601|-0.045718069560|0.037060553446|-0.180109063484|-0.031216648471|-0.020246106350|-0.132411907228|-0.065278106685|0.107935714621|0.018860475929|0.057634633671|0.040490059901|0.175541305325|-0.050047175309|-0.300400715256|-0.166808704521|-0.145051805896|0.020718716669|0.007615766404|0.258905009601|0.174716607536|-0.009089678688|0.294093544417|-0.078721359193|0.181212671465|0.205853872382|-0.181576942874|-0.086041353831|-0.174010815066|-0.106171667624|-0.217174255446|0.039026027249|-0.287207031841|-0.214700289580|-0.458145228629|-0.199753684134|-0.247025046452|0.032535951152|0.230283254378|0.002945735675|0.077411501378|0.041181956422|-0.091703745118|-0.146962288094|-0.052241141644|0.005350078824|0.120688667535|-0.168715405361|-0.136294682030|0.066334967203|0.175615159265|0.057526846786|-0.076473539599|0.022961480570|0.131567581362|0.070807157836|0.243253554495|-0.169991498070|0.017952795129|-0.038413592184|-0.142544951570|-0.083639814514|-0.204982888239|-0.308140626808|-0.240790268466|-0.106963489487|-0.342227818299|-0.009379005262|0.051261153906|-0.306044595096|-0.060416721737|-0.205455684855|0.090066764878|0.225624305834|-0.144766839311|0.208356570448|-0.148389651408|0.217362883484|-0.055138341009|-0.308161446845|0.010721739720|0.203004898877|-0.012838832351|0.318989273146|0.287371716716|0.389178276828|0.186150824510|-0.014421804020|0.036055986558|-0.142559977834|-0.119848639019|-0.225747006627|-0.039504336070|-0.209832662220|-0.216272582424|-0.140513759943|-0.142986237626|-0.125826431284|0.091490698868|-0.237725736433|-0.200755747168|0.039679212478|0.035184101128|0.083813423196|0.082994903876|-0.069672806945|-0.002036370447|-0.021783112626|-0.024598033651|-0.064199480780|0.060268029198|-0.070169513284|0.220022727618|0.171241571769|0.402660894498|0.053086618967|0.365075748031|0.233503691890|0.259597780561|0.246448492417|-0.069298681662|0.029191902388|0.097509440081|-0.014510935526|0.055949905604|0.130491683985|0.181585862792|0.108614712243|0.026908329407|-0.037864222336|0.175271888625|0.127012184626|0.126649722109|-0.031040116497|-0.135573658232|0.165891218788|-0.185883928915|0.070285733591|-0.030036457533|0.198640465248|-0.140572357493|-0.026203002769|0.317053968806|0.064987945865|-0.098534849426|-0.008484062463|0.039913000769|0.174549524296|0.150729058960|0.222348665824|0.026208534278|-0.070442856343|0.161398324308|-0.098156006185|-0.064399941392|-0.128155070292|0.105810752721|0.149996175172|-0.136244868885|0.058829700057|-0.130866212159|0.195904322769|-0.020503557787|-0.098392585761|-0.375871955087|-0.091759321736|0.271665633921|-0.003470047091|-0.017700107937|-0.091361501020|0.012323780567|0.241788109493|-0.033046869806|-0.059591600103|0.040751777208|0.095566595288|0.047798749190|0.025260100950|-0.101602891221|0.024224594584|-0.199627889814|-0.067328577001|0.053686431646|-0.188171827875|0.074150021077|0.144145970672|-0.242343461991|0.004615163993|-0.133466223466|
-0.020539866339|0.143617606066|0.043140239960|-0.097411212318|0.341823155117|-0.134084752592|0.132253967040|0.066080063407|0.298042484691|-0.017119290348|0.143340683273|-0.093767321946|-0.159814453415|0.243304542467|0.002171080347|-0.038827882879|-0.028268749789|0.065342566823|-0.086536741994|-0.085586355140|-0.147521738805|0.044097977843|-0.046738623677|-0.141607784225|0.135336039587|0.202305733262|0.099713920199|-0.201315101825|0.125050076934|-0.156587968601|0.097423557847|0.112860223683|-0.035728398737|-0.239218761036|-0.095400645394|0.124343802363|0.070413636311|-0.133136669097|0.220772649716|-0.131544406895|0.267405683574|0.080897032345|0.026788301966|-0.010704948785|-0.008815195578|0.212375450935|0.020556024736|0.167901388217|0.296638474994|-0.113551895328|-0.058502818150|0.058982719445|0.030191243872|-0.104905745860|-0.307389023623|-0.154286696237|-0.061083730618|-0.053797144161|-0.096731057473|-0.123903702710|0.007767320922|0.025929803751|0.000395950685|-0.011379182091|0.087977417672|-0.192742641199|0.192811987221|0.069057396770|0.114853657637|-0.044580183179|-0.020983907049|-0.023636422778|0.053669828429|0.318160522845|-0.112791060379|-0.101689467993|-0.010859467828|0.089619567192|-0.153014350243|-0.115970108874|-0.165725371601|-0.160500208737|0.061825036862|-0.057745874318|0.021418232413|-0.098319997813|0.243581889498|-0.149773150693|-0.062970059871|-0.069450651479|0.046596813134|-0.081284408021|0.073703035491|0.025871058343|-0.105442092591|-0.021502350687|-0.122459849702|0.212909186745|0.105057829282|0.011366361106|-0.109432120466|0.306257013415|0.014603475053|0.014306085205|-0.237287808048|0.053594759233|0.254818420037|-0.119698997421|-0.257016042174|0.201301417443|0.023742791589|-0.187537335952|0.074608426132|0.037294731428|-0.011213384092|-0.081507479367|-0.243767522216|-0.175784869042|-0.069018028583|-0.042957841670|-0.162434071538|0.295197455031|-0.051770437972|-0.124066442687|0.240910409183|0.027895407389|0.017086074897|0.051099194608|-0.046391921481|0.006702688464|0.196958677355|0.017135632428|-0.025932513910|0.068663234076|0.027082290064|-0.164559255762|-0.190085030574|-0.222216718742|0.019888224190|-0.064101577299|-0.131602031047|-0.258527573797|0.111825112188|-0.034843716292|-0.090552268200|-0.280738001693|-0.068440077625|0.160123971454|-0.031128387926|0.284543886371|-0.086244923395|-0.072839693253|0.086486336884|-0.029606396182|0.103938142924|-0.149685457721|-0.052381933399|-0.104362173296|-0.205114370638|0.197664412458|-0.066958041510|0.057046908751|-0.107049370854|-0.048883428820|0.208230273001|0.260367224698|-0.009300411984|0.065422284228|0.104439010483|0.005160596359|-0.214677475046|0.001590663429|-0.177080156392|0.101737054307|0.149919043079|-0.170852215854|0.011871679060|0.303855591923|0.015957436529|-0.135300533545|0.164069868492|-0.152988029067|0.016616907933|0.080318212510|-0.065097407803|-0.017433791995|0.009120110137|0.116823031920|-0.066184229746|0.081673560017|-0.056955876527|-0.105305840890|0.100469421327|0.019909528481|-0.117027600292|0.220027874962|-0.068922572380|0.070897312761|0.101457346128|-0.075547720418|-0.219410289537|-0.030276732013|-0.133386003377|0.270378035208|-0.059432225394|0.018967589500|-0.286543373528|0.128079810730|0.180555810370|0.089733594015|0.202655995618|0.040093467449|0.136839378796|-0.018014763856|-0.023799031504|0.037763280689|0.002261220273|0.070425211012|0.097642188851|-0.165551185059|-0.406107662735|-0.031036554360|0.066728892483|-0.141031482966|0.228942712036|-0.126498792913|-0.158471913960|-0.245656620095|-0.064217967022|-0.222674973687|-0.010881407658|0.075348196494|0.119293183686|0.020476238773|0.095844956254|0.150852020379|-0.130864850291|-0.121719969544|0.164964697314|0.225633541360|0.186004441993|-0.105105407812|-0.004349778712|-0.078822281535|0.132004183877|0.284898619033|0.215145596619|-0.123820626385|0.011453666919|-0.035804137168|0.138273358630|0.191139920409|0.139496727527|0.074688905340|0.253456014943|0.017925834809|0.122162995211|-0.060351388071|0.014217104029|-0.051282995448|-0.035364335103|-0.121996548395|0.011933053488|0.036258613424|0.099026384438|-0.091231723119|-0.058646055325|-0.017797631881|0.146819492767|0.135043401982|0.121909343465|0.059063338286|-0.052251146917|0.023051188454|0.070843909572|-0.039460885375|0.102256444820|0.237848703913|0.007018321810|0.096535782832|-0.026130584979|-0.232415678477|-0.020580325228|0.269605344052|0.066149163479|0.099780887155|-0.054146047455|-0.158638807050|0.246678588228|-0.158195520412|0.169619014335|-0.015067153057|0.068519416890|-0.083527572042|-0.057440507603|-0.190741952355|0.077180973475|0.227740916082|-0.225548737508|0.146453556804|0.067136563233|0.123648890799|0.183438220774|0.140727198580|-0.261735807586|0.263426290983|-0.014541315963|0.065846302091|-0.027657769266|-0.233042445622|-0.086283766457|-0.112302776366|0.144751196636|0.025120210490|-0.110632334097|-0.140363298613|-0.044628304412|0.102534905864|-0.007895268378|-0.169295911269|0.145722201182|0.037296059914|0.072587660848|0.141612239318|-0.108402758194|0.099958396906|-0.045871634235|-0.089373130560|0.085263631388|-0.339267936974|-0.161196612380|0.005001669030|-0.134911556039|0.079132491008|-0.027422545995|-0.118199492442|0.074299479237|-0.075768453636|0.206681384801|0.183435968718|-0.122826624309|-0.000565078276|-0.098407961032|0.049842300352|-0.248618053240|0.049354061888|0.024458127553|0.064586310596|0.096390330212|-0.315032774316|0.066899589422|0.134171216989|0.048812434535|-0.039388052767|0.021441197320|0.186916574242|0.077286378816|0.248878232198|0.143124102190|-0.085711867943|-0.010858673238|0.107479374181|0.027211985324|-0.210439087984|0.016305487324|0.088075291035|0.015846017897|-0.005452332262|0.050062334745|0.105888836323|0.058922095372|0.046360408967|0.028680856317|0.065702207084|0.057713289394|-0.001657781814|0.033470207958|0.112634101086|-0.076308291591|0.401088480521|0.088552002670|-0.124788758192|-0.195906698854|0.192334271448|-0.009738768695|0.157771303941|-0.117513142034|0.150826650071|-0.078079073360|-0.299132577839|-0.128505428368|0.028771478728|0.093040528102|0.070765982415|-0.002851713061|0.090079280750|0.228854821755|0.001341439928|-0.113079211206|-0.039888417225|0.132049626748|-0.022665083713|0.175749822884|0.034154876056|-0.130610443799|0.005890644351|0.101142560466|0.141312535097|0.117146401282|0.086653102986|0.099669634386|0.345582312487|0.167444429378|0.028928804326|-0.044726210198|-0.147548733093|-0.042190849370|0.003159298664|-0.019129234663|-0.159656248516|0.088734797941|-0.020972549445|-0.068012797612|-0.127191649429|-0.189759097448|0.018631643809|-0.108723326281|0.170439072450|-0.035284309138|-0.021641830768|0.088489543461|0.099629895196|0.040740364664|0.065990946205|-0.064250154653|0.048091249939|-0.112289674675|-0.154416062163|-0.157400309031|0.163368236752|0.120869924770|-0.196884877740|-0.131955917338|0.040802293586|0.011242971317|0.036062993632|0.197904174534|-0.024344500612|-0.032517716299|-0.079752338601|0.190917610884|0.087225053442|-0.016608768568|-0.378706694718|0.038742705664|0.004866559980|-0.096010556289|0.113319467161|0.032852765281|0.055731803443|-0.046043651429|0.081179912543|-0.074419076793|0.002577929787|0.003376324991|0.281288471847|-0.074518889943|0.142833246498|0.059100680445|0.073071044813|0.029296698297|0.024991159065|0.095156560477|0.094942257490|0.151793362462|0.135775429850|-0.110145272292|-0.197470872502|-0.147999571107|0.334831904335|-0.016824963654|0.174395221397|0.065970281516|-0.026455312369|0.010855231985|-0.109537882017|0.147460726122|-0.261315049305|0.062026384647|0.165404418816|0.114519433796|-0.065863509509|0.335142531160|0.038734624973|0.154075493041|-0.006372762371|-0.151748529123|-0.100718888986|0.221587450346|-0.066726543284|-0.026892505790|-0.141999367619|0.156281206428|0.194280896835|-0.138362476606|-0.020811375736|-0.064890461314|-0.034067977601|-0.229060863918|0.103512778903|0.061718852828|-0.055926774713|0.083031733119|0.134094408053|0.104529327590|-0.380068380980|-0.118338654876|0.105783696720|0.088401314655|-0.102112977733|0.192087356692|-0.149625663407|-0.068625774606|0.114082647741|0.115226252264|-0.139657338441|-0.190466246175|0.051372714983|-0.149204808906|0.031956675829|0.339113744221|0.031134580598|0.229128164437|0.246841771153|-0.039503334753|0.008118242809|-0.050691427785|0.011070711755|0.124667924234|-0.253142441247|-0.004080560565|0.280518610604|0.081366130148|0.088014181779|0.356254712599|0.079968773072|-0.089082152281|-0.039052861523|-0.157148776837|0.026246572005|-0.068107888392|-0.004091437616|0.056510790574|-0.053941308687|0.180913582545|-0.084745150096|0.061619410962|0.012367398774|0.034349961317|0.038801088802|0.145701614971|-0.027704112072|0.100475552400|-0.154647667544|-0.115149457746|0.204361434637|0.179217544876|-0.175276517804|-0.044891383943|-0.023541637573|0.057256483483|-0.031132656801|0.007310078876|-0.039454363593|0.034381573737|0.217235979966|-0.043288417177|-0.099469908433|0.187450300777|-0.077499667511|0.223891034701|-0.094573936684|-0.070041099555|0.034216050780|-0.029159357903|-0.050369696435|-0.150929002443|0.158266307551|0.051821674342|0.223823952090|0.051934380957|-0.103191815794|0.154643889909|0.089727379644|0.176726558044|-0.076005398893|-0.015176264093|0.061762882174|0.018435345525|-0.076413293337|0.075797446443|0.166708241346|0.011050324377|0.015786352270|0.014276183254|0.056853410678|0.093615226413|-0.007573341180|-0.036227884548|0.184825410690|-0.095925845405|0.152829886350|0.120692137204|-0.020422473053|-0.275275936579|0.424071334903|0.115008766681|0.080736795801|-0.229571086274|-0.062666257199|-0.069921200306|-0.298339374730|-0.227438196841|0.039037253537|-0.121710470126|0.134471561335|0.044641042413|0.025469834926|0.012046591616|0.040561359350|0.150243066366|0.145517094835|0.104325604801|0.208536106709|-0.018327777880|0.048491945693|0.114314923142|-0.099019165443|0.040504237046|0.035276164336|-0.113367350354|0.056417556086|-0.133984216463|-0.126652550744|0.277423513165|-0.140036295476|0.025818141521|-0.051670788360|0.261317884210|-0.034339729049|0.065772326675|0.229492230722|-0.184833277185|0.057525190165|0.037524428878|-0.058626314256|-0.310882579162|0.013236474418|0.147000670806|0.007250859175|-0.098163052869|0.032279410865|0.022830162327|0.053075217935|-0.112994221230|0.103999650302|0.041587970953|0.180098070777|-0.017118646440|-0.191224812367|0.144034566478|0.226576825979|0.233051969090|0.003578796582|0.070149181678|0.149269168676|0.091093078063|-0.015460091580|0.175502076958|0.060902954855|0.076568307350|-0.139743780450|0.170134038228|-0.186086482872|0.069797385778|0.133067924689|0.136160206358|0.167380007983|-0.019713949480|-0.000700759436|0.056666627437|0.014188148737|-0.086811857566|-0.014171260133|0.117496217241|-0.030177496008|0.004131739857|-0.042002287920|-0.155005326011|-0.297074991864|0.036248077119|-0.001600046813|0.064435307009|0.037708312076|-0.044492739433|-0.173303080150|-0.089625581346|0.056684869857|-0.172370012652|-0.044344261710|0.076985848482|-0.080439844926|0.007799186862|-0.007518046790|0.106429477168|-0.092472196499|0.077996246571|-0.112284235732|-0.245868838124|0.139331262504|-0.162114471173|-0.270655725268|0.198414457941|-0.141299520076|-0.012388775436|-0.110051899934|-0.147789837252|-0.058734340031|0.070075109817|0.123880736006|0.067803901169|-0.109597678558|-0.119624024834|0.120554183435|0.068410852059|0.019518127813|-0.314851074952|0.010049134209|0.157161468051|0.039300178773|-0.038956296446|0.042811574120|-0.131070781019|-0.057105803757|-0.089448369752|0.141631167169|0.019072195242|0.171914047968|0.032767436811|0.009347075058|-0.159923674676|0.132500488916|-0.010727149758|-0.142749832993|-0.042623918444|0.322067358747|-0.046138388881|-0.141937516227|0.108223276238|-0.012478224615|-0.215280019430|0.088904835055|-0.092800587282|-0.097947133836|0.150374980547|0.056717693355|-0.173044852044|0.018865474428|-0.196847244769|-0.090662913554|0.115263184478|0.051225090571|-0.166559825452|-0.073287385596|-0.358424433904|-0.164566690791|0.063109745701|-0.057426748658|-0.107065701854|0.127395892850|0.053664994699|0.297002008765|-0.164265159278|-0.189156102083|
-0.107080029437|0.003273803815|-0.112000185228|0.065218659416|0.129133846887|-0.026020742111|0.080181793557|0.253599063632|0.050918576140|0.341961522415|-0.027165631898|-0.083297464831|0.180280969197|0.039402956494|-0.026150317707|-0.059394358862|0.067036152584|0.073112192248|-0.024191549078|0.163913929072|-0.300442841711|-0.181069988573|-0.048510004222|0.218929073674|0.027745041135|0.002538778514|-0.253044784183|-0.172297190899|-0.176517476336|-0.166493558579|0.128656167692|0.043767908091|0.042284481087|0.133671806715|0.111943050542|-0.161415481410|0.093425093036|-0.035363690815|-0.127176232678|0.072515263148|-0.176498319754|0.136545522143|-0.016598970798|-0.127849398203|-0.002577235197|0.111918759700|-0.062806496915|0.098711482658|-0.129778137794|-0.337299681299|0.062522344148|-0.058267970710|0.095778925158|0.075745894284|0.198800467870|0.087684862944|-0.059833746318|-0.042036621258|0.061842886288|-0.226035786850|0.104523736469|-0.046237169587|0.378813449328|0.089828499194|0.016280322601|-0.080300969949|0.150232243066|-0.288594313377|0.075371575307|0.129206516747|0.050539133060|-0.061267179795|-0.005487031675|-0.033456556525|-0.112263221844|-0.048929708731|-0.117379277290|-0.077671749362|0.027796036407|-0.156527708265|0.041232391480|0.015838552182|0.233096625905|0.039091409285|0.200732986649|0.101365571662|0.032152603544|-0.150934364678|0.064591263003|-0.109188150931|0.044614160174|-0.112893159000|-0.000667388197|-0.047540459876|-0.010065301751|-0.071098597828|-0.037685028292|-0.135755360137|0.016316049742|-0.378572373659|-0.120663913996|-0.134679103367|-0.074843350273|-0.083538914958|-0.021811245781|-0.340281603683|-0.084909076925|0.012301876036|-0.096270430482|-0.102168728768|-0.030150325299|-0.093204514213|0.080769918682|-0.085338771349|0.083333910728|-0.038378435643|0.305191641254|0.012293014653|0.071516009800|-0.194250301500|0.004515903921|-0.042426414738|-0.011869644271|0.233994312367|0.045858236830|0.175794407778|-0.208426299361|-0.062455888114|-0.215816334910|0.078918358068|-0.253648958658|-0.363381360895|-0.182263348365|-0.143759992209|-0.061058396683|0.166973684216|0.168017907652|-0.149124692623|-0.218174688002|0.095807057446|0.023971291608|-0.038141072237|-0.072730649031|-0.132962474901|0.037027170333|0.071120170633|0.103829857229|-0.032264393553|-0.039695300737|0.056566144253|0.049146080571|0.014952994434|0.100492614969|0.195126745253|0.221881175232|0.186308006284|-0.147090673415|0.028759592734|0.089712722455|0.080007665828|0.145654166368|-0.103886326187|-0.134359040363|-0.003161597545|-0.264317374746|-0.163656985744|-0.060948389325|0.134514525374|-0.120865110170|0.059955349064|0.223926541816|0.002015942833|-0.177282008615|-0.229811508333|-0.015502250961|-0.351796761004|-0.072887896862|-0.000015839280|0.335593112553|0.302514746750|0.286615569661|0.212718003349|0.297227620572|0.284551573952|0.421785561657|0.402921488442|0.256472600603|0.089801858206|0.116769285993|-0.011695382613|-0.302929132554|-0.267280783343|0.041325082208|-0.067311523076|-0.148764248062|0.099527915967|-0.008859038151|0.061778298026|-0.157069492774|-0.355345219000|-0.043247561322|-0.159435342609|-0.092659586998|-0.000414063553|0.127806795006|0.167563994993|0.179988497820|0.468690684072|0.631209555005|0.350614942068|0.626441373332|0.493656308240|0.633375848126|0.508709010284|0.368955002695|0.396929365042|0.138962968320|0.201428630813|-0.025241762397|0.009823978109|-0.254182191283|0.073067925927|0.103561439063|0.169078812555|-0.010378853218|0.094320243679|-0.032454641923|0.025299350282|-0.106662993011|0.071455143857|-0.008406726234|0.067602397509|0.080196220991|0.072481102165|0.551445102437|0.398877432078|0.496472602988|0.486777441071|0.346116511564|0.285707992334|0.412576139460|0.164559534554|0.173785574839|0.117778289830|0.333653852468|0.177440168308|0.361055255328|-0.022350025979|0.147327167764|-0.018395267137|0.155131841446|0.080484043433|0.139396175098|0.142672632730|-0.130809666115|-0.102118160373|0.049959114545|0.134831562707|0.164828024399|0.083239892754|0.044507941470|0.374156737618|0.210886161097|0.263844567376|0.276149790937|0.524830128999|0.606045301151|0.286571442863|0.139049056515|0.095285638542|0.063963422574|0.238079833622|0.072386456597|0.039483619778|0.019673115270|0.085701360174|-0.021147270788|-0.169696377408|0.084804110930|0.037947360771|0.175443237064|-0.214926103982|0.319613638986|0.187103888795|-0.001642507178|0.069894278619|0.299872589574|0.152195801653|0.175654069017|0.098120512498|0.355295179352|0.184525218188|0.154627525987|0.331814094835|0.211025697143|-0.007735613621|0.147481850646|0.024872837451|0.185505079454|0.132801777598|0.321384228578|-0.039940038540|0.080443302119|0.187675632589|0.144316804567|0.110295362879|-0.009524379474|-0.062569312505|-0.224136630785|-0.009109909782|0.100458021750|0.343596949215|-0.072159809180|0.279170841351|0.255865063255|0.149374668249|0.208446446473|-0.055325801143|0.016989292275|0.293825515005|0.139597005497|0.230373185902|0.150863616677|-0.189678090191|0.094816326371|0.181123387084|0.246438111565|0.255386921935|0.364598456162|0.248577488033|0.019534142752|0.277170215483|0.175023661636|0.136282842607|-0.162036477915|0.044703068559|0.051049419315|0.016888400471|0.046777896975|0.245484193930|0.287002796705|0.264462752697|0.039442950193|-0.058069162492|-0.132504988233|-0.241761587321|-0.269769544441|-0.418542966842|-0.416544033732|-0.012733739691|0.076151504349|-0.134907012580|-0.080271794708|0.105543866623|0.362743853710|0.140984791887|0.221016880684|0.108900559059|0.303143059448|0.055607326122|0.119078200031|0.093295865875|0.233886919092|0.125468992321|-0.149243840227|0.042660914612|-0.034258584486|0.035880408669|0.135465503256|-0.016938246370|0.023265389957|-0.087953366731|-0.270912430436|-0.264752174092|-0.321694264271|-0.570584699504|-0.723591984456|-0.178319859111|0.038934371239|-0.104190961587|0.018552532730|-0.122015345927|0.067926024244|0.119445688897|-0.141188826629|-0.184126342854|-0.064391746852|-0.258321469955|-0.161066478878|-0.072215758571|-0.010742255177|-0.043051056119|0.006069218589|0.162808762733|0.170975738634|0.200086124559|0.123865602449|0.054166851565|-0.026107723944|-0.144478944039|-0.690787462146|-0.199908521045|-0.211177243271|-0.694899730672|-0.535337618418|-0.188976541121|0.076349979061|0.118879392284|-0.233299704995|-0.213743291650|-0.095183703620|-0.021119514400|-0.094514445460|-0.158414017764|-0.327216562596|-0.334278788428|-0.186399654285|0.103217860541|0.239584081418|-0.259257789076|-0.107445722833|-0.055229755037|-0.088362476376|-0.065169249127|-0.168926235715|-0.095644425465|-0.402238617954|-0.368120366605|-0.245910910507|-0.279392167748|-0.488318563293|-0.279154971941|-0.251643727348|0.178497944288|0.004112648980|-0.078334953053|-0.285385328206|-0.106443931233|-0.208326498546|-0.154786484566|-0.031404129411|-0.196058877355|-0.230349422434|-0.292796184715|-0.242126968699|-0.092645782545|0.204877636920|0.118511163749|-0.092328089836|-0.042886072320|-0.028633928281|-0.157166208558|0.094684680560|-0.153970032255|-0.452354914220|-0.074031915308|-0.142466787457|-0.093963806295|0.124455323633|-0.132331349579|-0.114490088038|-0.038532248962|-0.271875326902|-0.407001603659|-0.055328903138|-0.112605904494|-0.208201824633|-0.362255875242|-0.251954534701|-0.303750756907|-0.161504724742|-0.090088158976|-0.154860293880|-0.081813598025|-0.078544772982|-0.173921676763|0.102910145424|0.044104834640|0.176557088645|-0.083537062356|0.123689985607|-0.015204500200|-0.219996932218|-0.319862321274|-0.283179257665|-0.029797413660|0.084727392705|-0.209738131123|0.152671480321|-0.313282784072|-0.429905413302|-0.228744408630|-0.318643316964|-0.096336241260|-0.236670929759|-0.028532726036|-0.021380962244|-0.475403656868|-0.246899128009|-0.293628822456|-0.204345708208|-0.083222497588|-0.215383527395|-0.168495237078|-0.252288501403|0.078675010531|0.012517265879|0.018432341048|0.035633090159|-0.259193455973|-0.088012669738|-0.053626769326|0.092744818458|-0.014750702667|0.328227880170|0.055450927647|-0.252641219514|-0.283394044724|-0.182874385228|-0.356355991495|-0.272792489273|-0.091515350389|-0.067967968031|0.207043194774|0.079955455696|-0.054098959729|0.186320811674|0.242263421902|-0.038811171495|0.135638366047|-0.134195582597|-0.044829437766|-0.082699847983|-0.022147450363|0.323089171942|0.016179667070|-0.129459807705|0.027478536074|-0.005543356632|-0.116150858798|-0.004862586456|-0.052312559194|-0.234800356335|-0.088146030167|-0.081194709372|-0.363055663030|-0.381316203374|-0.267512504637|-0.235246755223|0.256329430261|0.058547639146|0.217278511384|0.101864836839|0.281963119334|-0.043977526009|-0.059085411932|0.182657796065|-0.089944806004|-0.087342623298|-0.062866088722|-0.116908573150|-0.023644814342|-0.038912397182|0.096236168214|-0.057399543349|0.122928241250|-0.068210565642|0.132377577909|-0.063558329351|0.036222458236|-0.169441072659|-0.436070252297|0.015460978970|-0.174838517154|-0.138774820309|-0.238446144942|-0.153706941230|-0.149682493042|-0.053532911944|0.368215530980|0.059149588596|-0.102724865717|0.132461139584|0.037504800092|0.353697338938|-0.107968134138|0.038011045057|-0.054148143051|-0.152834411177|-0.188993077882|0.030890748531|-0.117007500775|0.273757620965|0.019044265721|0.199444386639|0.186275025401|0.180342330162|-0.123363226104|-0.026333571545|-0.080867823695|-0.279379817651|-0.165298070111|0.093350133431|0.260509660712|0.004851880389|-0.164167774803|0.159080742735|-0.025727709647|0.142562246129|0.351703910389|0.216427499286|0.164439249721|0.074563551128|0.081245434767|-0.080174479072|0.103238363723|-0.024497264881|0.264681648236|-0.205352441045|-0.137547201862|-0.002019863762|0.275572609905|0.017490359196|0.203450763634|0.397697761814|0.474904924448|0.202455975185|-0.007971827781|0.066889137291|0.148873266602|0.026107969843|-0.111984933566|0.047006568108|-0.105467241517|0.129501036581|-0.160581103136|0.147587480796|0.129212173589|0.211290278178|0.134583729252|-0.103698150764|0.162640003703|-0.082694254827|-0.086493856128|-0.044284815455|-0.018856128238|-0.201264115069|0.121778441842|-0.026480241709|0.110023700863|0.115378905908|0.355791507607|0.520040329510|-0.099031271054|0.366657639510|0.428572095557|0.230143627401|0.078328666278|0.238463835514|0.077586180313|0.136395240246|0.161571399058|-0.047250566258|-0.093394785114|-0.008009296315|0.211591861570|0.072169390514|-0.093044842255|0.036939624639|-0.110692428955|0.104829380020|0.008605429923|-0.057478518844|0.041885109561|0.041056004871|-0.139269023269|0.182511982303|-0.083556054991|0.127028347334|0.117320993365|0.382264127133|0.066646642961|0.058906703279|0.339005725790|0.186204993203|0.217608396538|0.063502672302|0.019544600278|0.012903703305|0.242999591927|0.035720236151|-0.112359570025|0.269497211902|0.114677208552|-0.008195150307|0.163499037699|-0.198172774967|-0.139455798005|-0.048315998505|0.058891002341|-0.044943837497|0.025626902507|-0.071198376497|0.057093282577|-0.120978409788|0.232026952985|-0.007598804985|0.244261835878|0.270005021233|0.314888831255|0.236639591102|0.108714246781|0.321835190666|0.181641049727|0.186132312253|0.115697757521|0.247191168478|0.203103902228|0.342680879080|0.288063493296|0.157858168844|0.057431942014|-0.260634964678|-0.119900774005|0.093435075234|-0.042642907387|0.152279681196|-0.130973787847|0.106220456978|-0.183611797832|-0.118502152422|0.014162811929|0.092065306909|-0.112309907158|-0.175519191474|-0.049801083978|0.206512854382|0.152060216115|0.052813882358|0.154565525941|0.169547953029|0.508077241936|0.288872788130|0.319024313224|0.384632382963|0.040368704967|0.255986775347|-0.090569939162|-0.154491819111|-0.084618575066|-0.028115591284|0.072758587560|0.021100643048|-0.015290133704|0.113079596493|-0.076260756817|0.175235488806|-0.131595754109|-0.029319206320|0.004564939796|-0.027989315590|0.149312968928|0.161985305017|-0.031295704109|-0.286684742440|-0.027798975483|-0.032386519754|-0.154977353097|0.329339981227|-0.154314057114|0.003250027055|-0.122199615036|0.098571507627|-0.096036455338|0.023983287912|0.102017265614|-0.033873772660|-0.006814441841|-0.049768485839|-0.123268422770|0.063547610215|-0.222296595302|0.069260255602|-0.087500817267|
-0.051222338467|-0.137221709227|-0.051866887842|0.093722924360|-0.072734142501|0.066223836263|0.066383255088|-0.066629737809|-0.107761986688|0.218520391312|-0.083905449565|-0.034013845385|-0.109537496357|-0.105291016894|-0.074975643123|0.110067271661|0.004577296470|-0.023318673655|0.092682793559|0.053758515486|0.178960474616|0.010652903819|-0.033721309182|-0.032876910366|-0.118635914352|0.148029712946|-0.361181243515|-0.247038203044|0.007099258117|0.225315748301|-0.106543598764|-0.072491488680|0.128562843453|-0.198224325219|0.140268425047|0.005721953591|0.161937012541|-0.036701535053|0.107857723459|-0.264820780938|0.128773503417|-0.093869884347|-0.112662774570|-0.122712801133|0.103883811770|-0.060508397914|-0.094274109052|-0.053225919800|0.080243818282|0.019102141886|0.201726929839|-0.015901307961|-0.058770071971|0.177369576106|-0.365564209875|0.189683828252|0.012186701886|-0.229163707870|0.219734197402|-0.082698202489|0.091040541231|0.154804842972|0.163370015081|-0.079915754296|0.020399409407|-0.154511220176|-0.233829838378|0.164363118061|0.109914069083|0.048562732643|0.142661358291|-0.194473175046|0.062418914699|0.005488798420|0.169654720178|0.099349590020|0.021543496266|-0.031703456091|0.092520138516|-0.211363119982|0.051477125863|-0.240427172494|0.027052765608|0.140370820277|-0.074230596348|0.093695785871|0.085047110058|-0.113771170649|-0.078936746990|0.273533170379|0.283794432320|-0.317431156036|-0.112522797302|0.047369116130|-0.040357004372|-0.001236616646|0.085070853313|-0.054569123043|-0.112931681500|-0.030377890841|-0.076554796887|0.080097738729|0.101439197721|0.051490937279|0.074993974576|0.127237598408|0.110739413257|0.011678911009|0.221678460296|-0.049539898885|0.076037641479|0.045267135401|0.019895435390|-0.037378083714|0.025148431459|0.090334016728|0.165029173941|-0.047198085752|-0.161366357805|-0.259586595750|-0.004896348058|0.104906658821|-0.033861941577|0.113057104613|-0.245893862190|-0.123105662197|-0.001983612942|-0.109028943886|0.112176413094|-0.004712617278|-0.210444934676|0.028964643213|0.104667875462|-0.246994929024|-0.062988483940|-0.039650100424|0.051319360905|0.122922605838|0.117793789498|-0.037853840020|-0.237042253481|0.097154012095|-0.016867692771|0.187186255365|-0.142371247659|-0.209730904627|-0.076831493259|-0.034258811746|-0.030619842867|0.332921508931|0.167548491642|-0.174551860884|-0.053622685444|0.058399406380|0.035786465152|-0.273154514163|-0.047330940820|0.124980382810|-0.046831891099|0.143153680701|0.046948597175|-0.152592907879|0.108022631221|-0.145351706041|-0.319060465022|0.044229048006|0.084374089739|0.016255339091|0.157532264784|0.027693952470|0.089137334846|-0.003685603537|-0.005180980381|0.055713187283|-0.206416590891|-0.088696734146|-0.029627752652|-0.080520403126|0.039262677212|-0.082645991154|0.225421599327|-0.265717096051|-0.058398846576|0.111970562259|-0.115995814935|0.030034787853|0.076875525062|0.136456076503|0.022848026080|-0.027280456983|0.082473042685|-0.008844596531|-0.033332438211|0.014814935319|-0.008688425425|0.043667749316|0.058456988151|-0.128360185666|-0.027053612748|0.010440371296|0.120226145842|0.116025743489|-0.033584369302|-0.131724326490|0.279095550064|0.181733240248|0.205630495869|-0.002417922405|-0.185501348811|-0.103758056777|-0.133984738962|-0.107955154906|-0.100639372993|0.017292041304|0.060676546636|0.094764678322|-0.059913073366|0.152056342599|0.039354314412|0.060825324750|0.110937552110|-0.007826655384|-0.077048960238|0.091786251272|-0.079716975760|-0.142833087764|0.259394404811|0.242007404212|0.079381567285|-0.114144024465|-0.087626219858|0.013683216586|0.096493027746|0.096211984257|-0.045778879770|-0.102378497344|0.098424618198|-0.055713969183|-0.060831544361|-0.024795204911|0.144235431850|0.063666606185|-0.027590645381|0.070648565109|0.049070138224|-0.149162134527|-0.217913372307|0.157235103256|-0.195738041648|-0.134116035282|-0.303487948249|0.088228224390|0.155224210644|0.204189931077|0.159438849008|0.120352972655|-0.041667008309|0.038535946306|-0.176485135374|0.157646872922|-0.090715103816|0.038583571286|0.216516021899|-0.078177298644|0.000390927812|-0.121168382748|-0.119922188098|-0.018134892521|0.164508265489|0.230937990999|0.106684445198|0.014789436518|0.158684501761|0.136385303888|0.058663940162|0.196574077050|-0.096483060694|-0.078506205266|-0.081825651024|-0.077566761913|-0.075248705548|0.241540313774|0.158422105160|-0.150931253957|0.082438789270|0.056594826295|0.195459258648|-0.182213808934|-0.055313169517|0.042141131432|0.090432337739|-0.088853664893|-0.025905944665|0.083731042246|-0.145257725901|-0.049191068955|0.073458032711|0.166497517195|0.285507336019|0.275692045014|0.104939925781|0.110169407925|-0.045944431974|-0.092343645449|-0.091420532517|-0.215538905868|-0.124001475378|0.330987593418|-0.039424376935|-0.218273334722|-0.086991263839|-0.047507703244|-0.128752635302|-0.022849314059|0.207924820890|0.116056621260|-0.003939642736|-0.048064891106|0.080225506848|0.130470761309|-0.319477650673|-0.295069302794|-0.500099266477|-0.148636420585|0.126729628271|-0.163537722994|-0.174351439161|-0.122338308031|-0.017816321858|0.133233047683|-0.029083187517|0.109673445700|0.084650273547|0.047763705530|-0.088922242973|0.073110980942|0.093721017207|0.085899199009|-0.178304598349|0.177264196252|-0.019332126676|0.295583902496|0.166946273713|0.128636811154|0.049774873748|-0.148015215613|-0.197189155184|-0.291985838250|-0.230019606604|-0.003183329895|-0.346178354434|-0.119875909534|0.010236067882|0.157785494634|-0.074217650765|0.170456665325|0.042711772056|0.436474103491|0.446752500840|0.251098138693|0.130336431502|0.154543827708|0.059433171093|0.032400565930|-0.111590799149|0.129486199007|-0.080492921820|0.191494210909|0.126967359208|0.254559181896|0.233988288462|0.210691891332|-0.043450483739|-0.231889489176|-0.177474794780|-0.158432635189|-0.153696951196|-0.023625820805|-0.365258095533|-0.039498248004|0.081327215816|0.028711424873|-0.130904015861|0.095347180432|-0.062087389859|-0.000092829152|0.189713448940|0.161133487910|0.280766662883|-0.121989809205|-0.000967115501|0.074780762467|0.008548348666|0.074985719630|-0.090961470358|0.134024061972|0.086542307041|0.168235685426|0.267667361783|0.077377195925|0.213450760378|-0.084239858388|-0.000686991659|-0.060942675353|-0.049093127821|-0.106663423050|-0.206726611302|0.129250852933|-0.132336343638|-0.006393041299|0.057227349645|0.025877841846|0.122571786997|-0.047051898548|0.035712447559|0.190885367542|0.067947366522|0.062480942964|0.138312260947|0.018417439022|-0.101198976784|0.206023346285|0.164207510960|0.134582236879|0.064724350692|0.174053210104|0.194031193000|0.649690702293|0.411259849223|0.265841780128|-0.052184902162|-0.289238369339|-0.445686107944|-0.296595205659|-0.094855798636|0.105694979828|-0.006406137465|0.276517987867|0.070209382583|0.191170131847|0.121562593210|-0.048530340877|0.118736172457|0.283481591653|-0.041203672609|-0.035986862639|0.020791176982|0.046118893601|0.069652210303|0.258252387819|0.053115457963|0.207441662840|0.080512562525|0.392354275970|0.417058500877|0.701573415930|0.704465731107|0.816550084420|0.746319454213|0.214674212464|-0.057993639494|0.103536886297|-0.281554935709|0.291761668109|-0.038518287690|-0.044840336264|0.012363609135|0.068447742482|0.003386560494|-0.188290721006|-0.316471144093|-0.096066212535|0.014080508985|0.239294640061|-0.044255105390|0.110475815027|-0.009292623796|-0.082914115553|-0.056943518049|-0.215433360240|0.018710540284|0.084894873418|0.133583460648|0.322428865557|0.760305069957|1.345035162436|1.278195453910|1.482518855901|0.810023056744|0.398620214072|0.185222075297|0.171373036189|0.094400933957|0.182603526303|0.058991938832|-0.214487450257|0.169633017909|-0.119642680630|0.037205736027|-0.168054878294|0.273603402179|-0.103965331165|-0.172454553704|0.205195487462|0.075406577108|-0.143833360888|0.066134654633|-0.267298870089|-0.270101657466|0.040964368065|0.072646956124|0.123963691897|0.157655898306|0.300712956413|0.573211714319|0.875334922138|0.914040260254|0.374137252405|-0.053063302461|0.180930486805|0.022326500630|0.005801539535|-0.046462679359|-0.074123469961|0.027297202966|-0.189218698647|-0.041033133528|0.056835950043|0.084187498104|0.035767776995|-0.112832693130|0.045550575363|-0.082088069300|0.047154881789|0.060417752361|0.007503242691|-0.188128693245|-0.034833675213|-0.134733864142|-0.172287242729|-0.353374365513|-0.181191264635|-0.368637046073|0.167149706343|-0.012456032377|-0.006141383794|0.030513476988|0.300328281481|0.078157485606|0.058074407139|-0.032884650427|0.036019381132|0.088137123532|-0.034514567961|-0.155479600003|0.136893166394|0.323060201915|0.035958330233|-0.076637314345|0.151012715566|-0.225387984505|-0.096470785269|-0.052623736652|0.166360660292|0.012970387049|-0.135409182230|-0.560874489590|-0.195733430856|-0.377006893592|-0.255018306559|-0.218866330234|-0.078898806714|-0.175861344454|0.096496751897|-0.059675744342|0.151503386176|-0.155587896086|0.184633593022|-0.018059492854|0.181023912418|-0.031945683698|0.160375474269|-0.118787464356|0.205995245831|0.164000344201|-0.060076111023|0.134228980488|0.087105150878|0.034659523370|0.125112476220|0.279401514255|-0.004246898033|-0.294196795319|-0.089266129948|-0.213236104230|-0.189191878287|-0.063337900368|-0.214924690462|-0.097593289593|-0.024144276287|-0.104209632237|-0.056065668356|0.144249871514|0.105534156651|0.117723845359|0.126299032746|-0.026946098363|0.079854060256|0.103000705442|-0.000241332875|-0.155485238178|0.249406559266|0.102442130335|-0.012840953067|-0.163345122081|0.165627118276|0.085789124121|-0.083947396699|0.002502442974|0.143424127899|-0.189860968126|-0.100720986328|-0.015533135832|-0.122732332900|0.054279752345|-0.139894711373|-0.023004576778|-0.062373305393|0.011028367584|-0.169088227359|0.027045332137|-0.126924769190|0.079808534442|0.004408321179|-0.125491503198|-0.060697271384|-0.040822200542|-0.022671994787|0.277455770627|0.040459396102|0.147776160284|0.044882005741|0.029759459926|0.091234996955|-0.262298983298|-0.096569844288|0.110024489813|-0.060899891589|-0.157169393818|-0.182569689746|-0.060602966968|0.028204748592|0.059641743390|0.098543594146|-0.266613066780|-0.068621175621|-0.147241606739|0.052476977367|0.030454319564|0.055227356569|-0.073500027839|-0.103575648474|0.013500007614|0.156671423869|0.030016840835|-0.085914217230|0.061240172874|-0.146821785669|0.283296667535|0.198965556483|0.085823860621|-0.014273453469|0.106811288155|-0.085916375952|-0.203027600577|-0.045068667793|0.112345765035|-0.034966481714|-0.327808816352|-0.289692383073|-0.210881904633|-0.216176552125|0.070606907866|-0.095355419560|-0.077138318318|0.025578537425|0.034757330345|0.348947259926|-0.000535070560|0.015138106446|-0.087724243289|0.142316742220|0.067459817060|0.108555102499|0.014619419817|-0.223955491166|0.006115063934|0.234442987451|-0.251436166296|0.204080698195|0.024444681042|-0.142285300965|-0.095294517458|-0.013965901189|0.050349757931|0.020180601960|-0.099535601686|-0.379176267290|-0.091619086339|-0.171419123819|-0.206007097411|0.209009952366|-0.162910203069|0.013288150794|0.167835816323|0.030159467128|0.375259473185|0.254232652245|0.053025073839|-0.035019940666|0.187543455122|-0.130199040795|0.048603350185|-0.274961132224|-0.225063638935|-0.125453651989|-0.336314053073|0.191111642024|0.090520985962|-0.137861308980|-0.061919055662|-0.064692114202|-0.087590083901|-0.192209713008|0.183942193645|0.040189064891|-0.061948992492|0.341292780547|0.094980571659|0.019561295849|0.134406384667|0.064176927945|0.067826037544|-0.184106484078|0.239762475590|0.053414833062|-0.009751348787|0.066567077442|0.007811231656|-0.023300781384|0.032471950598|-0.008676994719|0.060865679947|0.083660253551|-0.122842872388|-0.033918983277|-0.031697256915|-0.066675422451|-0.099995511558|0.147278379268|0.021005222761|0.081968061837|0.090122149509|0.060296141860|0.087570724160|0.140584628889|0.233528700653|0.142369298513|0.077572859703|0.003927916250|-0.008416066497|0.001939637692|-0.127157651506|0.309427804886|0.226673710523|-0.095392576061|-0.114801706814|-0.032460118976|-0.120630259080|-0.038871753223|0.090029910970|0.159779697658|-0.048798471834|0.039071102971|
-0.063559587602|0.037635802728|0.171941622071|-0.010778693419|-0.096962337244|-0.120403784851|0.096737244968|-0.074256661223|-0.142360190321|0.109333966548|0.039509207135|-0.029696824517|0.080730646126|-0.029601981816|0.131543726399|0.134358237949|0.094906228557|0.001355804162|0.027938799758|0.058588684286|-0.051909265375|0.078632559575|0.146275641599|0.065721567661|0.100129063476|-0.054597426252|0.077969423917|0.162712075537|0.086910136871|0.173893160679|-0.175882141880|0.134240630458|-0.126516384150|-0.142862287530|-0.103769969064|-0.066568927075|0.036070199117|0.003575980354|0.109328130989|0.169193011530|0.299229462843|0.110503585144|0.092849362358|0.025550937261|-0.151718896689|-0.082610902214|-0.159698442530|0.097762799313|0.027056776373|-0.013519681470|-0.024603863315|-0.060426951507|-0.209062781466|-0.226602770404|0.162088697150|0.105720304963|-0.046099010632|0.035802186064|-0.056705171675|-0.131610491750|-0.352082617354|-0.051607056203|-0.188480423176|0.197651022331|0.002641458772|0.008204443744|-0.089781726800|0.167868567450|-0.067265503850|0.171556079929|-0.186347159534|-0.285706538798|0.040049859883|-0.203801954466|-0.142432374737|0.129283875150|-0.088069887624|-0.077311479171|0.206501162769|0.230393343058|0.114986577244|0.078514480663|0.077422541247|0.084831770292|-0.080739824395|0.025018577014|-0.149757335576|0.131228027137|0.045705983864|-0.228398403992|-0.034399747010|0.295200099620|0.103481931755|0.062451881697|0.069092694848|0.068910074880|0.330129405261|0.063602051667|0.247485977643|0.027783567299|-0.053534558146|0.114913775615|0.153044422902|0.139440420875|0.247263488432|-0.064962837398|0.189734336866|0.021800074434|-0.143940166116|0.157253642619|0.045022637612|0.037878131433|-0.168288490640|0.111884974838|-0.077983642591|0.129455224317|0.148706316536|0.029422114709|0.203386096489|-0.086358173621|-0.007631092898|0.090924668001|0.112741150207|0.172743118035|0.287818905628|0.270090867851|0.234745374662|0.152136123525|-0.028838353886|-0.031928084023|0.082873185855|0.217765488996|-0.016768238327|0.117037224390|0.135086824155|0.171348102882|-0.032294490342|-0.120511018797|0.144499968021|-0.104793052863|0.148460749298|0.035965202058|0.205525908510|0.138658560961|0.012034610525|0.019634768041|-0.069270685212|0.036119584293|0.301932262818|0.152051734363|0.194132421154|0.178183298847|0.470056643506|-0.019036779838|-0.120355694799|-0.138455460898|0.011763057592|-0.027727214834|-0.197072521664|-0.174115499319|-0.205506073689|-0.264848447842|0.044264116294|0.055323526789|0.092872989424|-0.067254793746|-0.050916644990|0.202979606579|-0.024818476132|-0.171917100208|0.076553313655|-0.048641127824|0.030626223801|-0.003485163719|0.134233866880|-0.032958773568|0.156376767817|0.211138104684|0.303341104565|0.029100101043|0.136008290909|0.128892135679|-0.090878765464|-0.017174728097|0.057300954959|-0.091177912221|-0.014669072077|-0.345011124266|-0.097987562818|0.128761128954|0.429547779647|0.179643247557|0.049680034489|0.021407035144|0.056937565263|0.009260875894|0.151340147327|-0.144649397160|0.016175572107|-0.090375573317|0.039974981946|-0.165404254718|-0.056811300866|0.236881915078|0.274370659657|0.439842937575|0.401466289101|0.028824800174|0.171743730011|-0.094339919006|-0.056686803097|-0.031447361970|0.062279323618|0.144120958166|-0.051731231352|0.014517431368|-0.131698931493|0.201129103176|0.088533018779|0.100404143415|0.090949666105|0.097330788375|0.230515068640|0.029725184357|0.159909708274|-0.167070033064|0.063715696818|-0.060624261620|-0.049767626656|0.097504815288|-0.044941417952|0.031574748518|0.279704778834|0.314142094476|0.044566101264|0.153803224426|-0.167960112156|0.056520010588|0.118109233241|0.004914092783|-0.078206304981|-0.113572048408|0.079214075083|-0.068080184082|0.135857056032|-0.108804704940|0.099227594767|0.093653550935|0.352355601325|0.057854031864|0.028038419631|-0.045469479483|-0.121783101475|-0.130279463262|-0.099425986532|-0.007784933365|0.164269898928|0.170320315095|0.153613237586|0.312618889736|0.219042426488|0.296413857290|-0.129072446812|-0.261263603876|-0.031709775143|-0.149251367053|0.060249234954|-0.191327641188|0.019583137012|0.272749950205|0.289164890000|0.102773930920|-0.023194268956|-0.129356732486|0.019344743915|-0.074126506938|0.055698188293|-0.060462440591|0.002802541717|-0.007272437642|-0.174371366055|0.037247821304|0.182608919304|-0.124535238236|0.076870399441|0.025627545649|-0.004576166988|0.272218402952|0.311472010335|0.112767916010|-0.113411618719|-0.188284769387|-0.336458822791|-0.005106138944|-0.066991949770|0.039857474979|0.239406902773|-0.020908965121|0.227925087495|0.434207977478|0.177258152192|-0.054304318336|0.014636770103|0.253407627582|0.108479080008|0.139063107315|0.097586961592|0.033592362932|-0.297069795625|0.163246526445|-0.053883403993|0.085798191973|0.114528920375|0.010112554557|0.100457486712|0.339858768704|0.125306302883|0.131463460393|-0.027607930699|-0.203563447374|-0.129365185569|-0.272054988550|-0.210738326138|-0.177470332952|-0.091300462292|-0.018798172902|-0.275307236637|0.182909935710|0.361067711008|0.160062632495|0.068057301730|0.145171676480|0.131549505509|0.047343022576|0.115449830134|-0.054689722449|-0.029393617712|-0.139630845138|-0.109172260240|0.241307033006|-0.011526886418|0.129849287461|-0.082544328755|0.103249977637|0.228062399158|0.079749650290|-0.001685815062|-0.045386240586|-0.085143007029|-0.262539675270|-0.138590420502|-0.240464854802|0.016693053036|-0.105360567317|0.039442976804|0.103196159937|0.149235924100|-0.079022090143|0.332612950869|-0.010439709897|0.256610223763|-0.059232463142|-0.081799302749|0.059638366997|0.012605850774|-0.228380123333|0.017211928085|0.007774053047|0.193054059404|-0.119978122380|-0.052433691642|0.378907870756|0.139754034056|0.016264560094|0.020136359121|0.093000889085|-0.299825995832|-0.160056996695|-0.347326948955|-0.192449258006|-0.325263509639|-0.158368389042|-0.132323775575|0.020511511947|0.273686973713|0.049261781248|0.110958829937|0.272811612784|-0.035511000370|-0.050019460920|0.287167721834|0.090537357328|0.285407781141|-0.108198628953|-0.063599026252|0.115357506139|0.098187401423|-0.133791561670|0.228413500226|0.190962892410|0.087223369298|-0.031070395130|-0.039855025268|0.023297748968|0.126588098558|0.029247576337|-0.204359107411|-0.059066416357|-0.097224000131|0.046490258829|0.365310542782|0.372727762415|0.074314138369|-0.012850086911|0.127951660825|0.076699980467|0.110664605590|-0.003527964495|0.142437236799|0.172213693660|-0.068782828308|-0.376398913569|-0.010222874089|-0.085397790158|0.064781601823|-0.152399446539|-0.070398414194|-0.036468511201|0.133498990423|0.246950355292|0.003492291075|0.096496920374|0.056043138028|-0.053932898061|0.060443047529|0.068630603237|-0.206485663306|0.094072319310|0.249088599262|0.162299975402|-0.013158384784|0.095678416102|-0.006089769236|0.101780811336|0.182599295513|0.113989982687|-0.228164412974|0.067997138288|-0.315778268881|0.056650140626|-0.185327342045|0.230849788603|0.014382000928|-0.031911791401|0.047847191180|0.078875488009|0.212016675252|0.102882236650|0.028379122732|-0.124092730528|0.206861842016|0.092522144823|-0.052173598192|0.053090384630|-0.024460292826|0.157796973260|0.403156434852|0.026487703100|0.124039314760|0.206002866689|-0.148772044436|0.212790463633|-0.056367193297|-0.040244763370|0.039414631659|0.274646999485|0.104017148803|0.019094176472|-0.146880273691|-0.065992299527|-0.170589682783|0.025326147803|0.168502082818|0.117275610239|-0.128069325746|-0.078733603358|0.088618353120|-0.029952346569|0.133733691863|-0.039653483053|-0.071647938770|-0.009417155229|0.187825447290|0.234927516009|0.188074683903|0.035076548778|-0.116513399143|0.078391161462|0.076269179952|0.002247536801|0.052826022980|-0.078508413198|0.121133286420|-0.139047524386|0.097945521042|0.049012134427|0.026723428399|0.059107693626|0.138904822044|-0.072941514722|0.240310470784|0.184977760900|0.052726926728|0.303985208456|0.150517658608|0.237013136340|0.213937685788|-0.081796616707|0.163441248838|0.016986512780|0.275457134501|-0.082555934209|-0.024883335247|-0.062454739609|-0.017634636971|0.097351626495|0.168455690569|0.196097051926|-0.121819104066|-0.047792774381|0.060021024131|-0.065483480349|0.168676367908|-0.110462811379|0.143734989379|0.170897239539|0.010701244231|-0.001078337510|0.077469258690|0.366368633169|0.123096023320|-0.045232384430|0.067604282847|-0.065535483136|-0.138054464984|0.058281357515|0.025276629361|0.282985672452|0.143576315728|0.141299127064|-0.145485987412|0.128320788646|0.024475051242|-0.036513268959|0.171223696262|-0.068733010433|-0.130600491485|0.167931527493|-0.087755298863|0.122700242703|0.011283377666|0.173420912414|0.054276712360|0.148793771883|-0.145451191223|0.061621995867|0.201187730420|0.168101396614|0.069775273052|0.043603161671|-0.099206160675|-0.187526940354|0.118653175147|0.176414453731|0.001766625101|-0.112531341187|-0.092413211979|-0.108468060265|-0.023389687895|-0.014728300424|0.009178966146|0.240268826493|-0.060711882123|0.313960748456|0.037397096466|-0.009446192699|0.012342225629|0.061643488655|-0.103881062915|0.309310236207|-0.052515556229|0.120387311218|-0.143720618369|-0.035711003486|0.232459741752|0.387542121244|0.026550614183|-0.141855268538|-0.181789793589|0.069584975722|0.206005733410|-0.036128253193|0.279410051461|-0.163214295176|0.183967050018|-0.150386745273|-0.122319835592|0.045934684189|0.023833026336|-0.067788911374|-0.031517940437|0.057339148160|-0.107924407792|0.140097251518|0.035969732488|0.017815914701|0.095082668853|-0.169614906950|-0.094336219778|-0.057246986075|-0.046147809723|0.102760688141|0.171361633625|0.115727809841|-0.075523677822|-0.032765936605|-0.148724670232|0.023263689958|0.193379530195|0.157651945865|0.079728017590|-0.129739118755|0.144390227427|-0.127450168026|0.107195605036|-0.004745489265|0.137077316609|-0.040444056537|0.075679059832|0.232414711142|-0.026701531265|0.020779456420|0.110796885373|-0.112082444995|-0.067411732829|0.092366590226|-0.064956961590|-0.082466192217|0.093450890282|0.135408270196|-0.000692652293|0.261055569152|0.134391910971|0.110016903517|0.068432818862|0.094249417679|-0.115414409924|-0.153577605373|-0.130645698000|0.066657742495|-0.181952473907|-0.144115561868|-0.180620288549|-0.039523847740|-0.064311933110|0.002218765230|0.063907266795|0.107213950776|0.146295440858|0.239251512044|0.234846662488|0.019730656369|-0.028839363405|0.066078027123|-0.138774933802|0.080912782081|0.072859615487|0.230735231759|0.084520549633|-0.018539903490|0.235692566323|0.254959075844|0.054135866793|0.036877264524|-0.077282732989|0.248308136019|0.140387355834|0.294360936740|-0.046190787880|0.212247490892|0.240122938419|0.144288278074|-0.016052172220|0.310909929488|0.054190019780|-0.141025000469|-0.176336040981|-0.133943613445|-0.217619505859|0.039977395390|0.069103578482|-0.064082273015|-0.111909159514|-0.098628212146|-0.094393981500|-0.199951144388|0.089780884636|0.146710102420|0.092731501960|-0.081931708514|0.247051699332|0.009581658802|-0.055557122002|0.158776660970|0.046688791308|-0.111942732093|-0.029592127702|-0.063539600436|0.344546227697|0.055050091391|0.074609314959|0.114023757549|0.175332807420|0.319465848200|-0.151150075991|-0.173218333190|0.145247996414|0.017724249156|-0.037984215750|-0.020597291913|-0.074770658858|0.006062360081|-0.047418236275|-0.219231196138|0.251403480860|0.040185573453|-0.179443416692|-0.133510809671|0.132103060152|-0.057445207418|-0.026254760789|0.296359051100|-0.100587231896|-0.030893741380|0.082521884910|0.126812392232|-0.185094634808|-0.002676460433|0.148972799172|0.189782895703|0.016097420503|-0.114656432306|-0.240972104127|-0.001911548621|-0.012135868809|-0.122939358571|0.061465170319|-0.054262717169|0.274312630670|0.137622120174|-0.143441456093|-0.075571304408|0.061488136888|-0.037777332627|-0.073292629290|0.160374573898|0.085472196075|0.065385631967|0.085044767829|-0.100985094128|-0.169094154013|-0.001944066042|-0.150296288393|-0.078985156732|0.259001428103|0.191775184090|-0.055636718261|-0.353270283595|0.188914585606|0.310511313173|-0.158268478735|0.089302466786|-0.009779984967|-0.089452139469|
